<?xml version="1.0"?>
<opencv_storage>
<stage12>
  <maxWeakCount>14</maxWeakCount>
  <stageThreshold>-6.4415472745895386e-01</stageThreshold>
  <weakClassifiers>
    <_>
      <internalNodes>
        0 -1 161614 6.3837305642664433e-03</internalNodes>
      <leafValues>
        -1.6025641560554504e-01 5.6818181276321411e-01</leafValues></_>
    <_>
      <internalNodes>
        0 -1 47948 -9.3224182724952698e-02</internalNodes>
      <leafValues>
        -1.5479327738285065e-01 5.4915654659271240e-01</leafValues></_>
    <_>
      <internalNodes>
        0 -1 161446 -1.2164210900664330e-02</internalNodes>
      <leafValues>
        6.5456461906433105e-01 -1.8144574761390686e-01</leafValues></_>
    <_>
      <internalNodes>
        0 -1 4081 -1.3011476257815957e-03</internalNodes>
      <leafValues>
        -8.3147507905960083e-01 1.0913465172052383e-01</leafValues></_>
    <_>
      <internalNodes>
        0 -1 2298 2.8191413730382919e-02</internalNodes>
      <leafValues>
        -9.6053861081600189e-02 6.7738497257232666e-01</leafValues></_>
    <_>
      <internalNodes>
        0 -1 97609 -1.8844347447156906e-02</internalNodes>
      <leafValues>
        -6.7507755756378174e-01 1.2564159929752350e-01</leafValues></_>
    <_>
      <internalNodes>
        0 -1 143971 -1.7907246947288513e-02</internalNodes>
      <leafValues>
        -5.0798320770263672e-01 1.8301162123680115e-01</leafValues></_>
    <_>
      <internalNodes>
        0 -1 66148 -2.1619652397930622e-03</internalNodes>
      <leafValues>
        4.6295931935310364e-01 -2.4996653199195862e-01</leafValues></_>
    <_>
      <internalNodes>
        0 -1 10593 -1.6900638584047556e-03</internalNodes>
      <leafValues>
        4.8237648606300354e-01 -1.3538338243961334e-01</leafValues></_>
    <_>
      <internalNodes>
        0 -1 127574 -2.6530947536230087e-02</internalNodes>
      <leafValues>
        6.0365712642669678e-01 -2.3032781481742859e-01</leafValues></_>
    <_>
      <internalNodes>
        0 -1 55574 -2.2782430052757263e-02</internalNodes>
      <leafValues>
        6.8907493352890015e-01 -8.6186192929744720e-02</leafValues></_>
    <_>
      <internalNodes>
        0 -1 10683 1.7725078389048576e-02</internalNodes>
      <leafValues>
        -1.3998234272003174e-01 6.5932977199554443e-01</leafValues></_>
    <_>
      <internalNodes>
        0 -1 2157 7.7277366071939468e-03</internalNodes>
      <leafValues>
        -1.3377764821052551e-01 6.5851110219955444e-01</leafValues></_>
    <_>
      <internalNodes>
        0 -1 38770 4.0558807551860809e-02</internalNodes>
      <leafValues>
        -1.1152928322553635e-01 7.2389507293701172e-01</leafValues></_></weakClassifiers></stage12>
</opencv_storage>
