<?xml version="1.0"?>
<opencv_storage>
<stage5>
  <maxWeakCount>10</maxWeakCount>
  <stageThreshold>-5.6374102830886841e-01</stageThreshold>
  <weakClassifiers>
    <_>
      <internalNodes>
        0 -1 161561 9.3412417918443680e-03</internalNodes>
      <leafValues>
        -1.6717325150966644e-01 7.7464789152145386e-01</leafValues></_>
    <_>
      <internalNodes>
        0 -1 5138 2.9251748695969582e-02</internalNodes>
      <leafValues>
        -1.3874250650405884e-01 6.1362022161483765e-01</leafValues></_>
    <_>
      <internalNodes>
        0 -1 137270 1.0146544082090259e-03</internalNodes>
      <leafValues>
        -2.2526842355728149e-01 4.3596377968788147e-01</leafValues></_>
    <_>
      <internalNodes>
        0 -1 161433 -5.6147486902773380e-03</internalNodes>
      <leafValues>
        5.9176820516586304e-01 -1.7618316411972046e-01</leafValues></_>
    <_>
      <internalNodes>
        0 -1 154948 -7.9077272675931454e-04</internalNodes>
      <leafValues>
        4.6325272321701050e-01 -2.0685392618179321e-01</leafValues></_>
    <_>
      <internalNodes>
        0 -1 146 -1.3822723180055618e-02</internalNodes>
      <leafValues>
        6.0374903678894043e-01 -1.8497806787490845e-01</leafValues></_>
    <_>
      <internalNodes>
        0 -1 123596 9.8207779228687286e-03</internalNodes>
      <leafValues>
        -1.8400432169437408e-01 5.7533258199691772e-01</leafValues></_>
    <_>
      <internalNodes>
        0 -1 60416 -2.4369247257709503e-02</internalNodes>
      <leafValues>
        9.2002421617507935e-01 -6.4582243561744690e-02</leafValues></_>
    <_>
      <internalNodes>
        0 -1 70121 -7.0125013589859009e-02</internalNodes>
      <leafValues>
        -6.6101902723312378e-01 1.7823620140552521e-01</leafValues></_>
    <_>
      <internalNodes>
        0 -1 127172 -7.7146962285041809e-02</internalNodes>
      <leafValues>
        1.4397545158863068e-01 -8.1666064262390137e-01</leafValues></_></weakClassifiers></stage5>
</opencv_storage>
