<?xml version="1.0"?>
<opencv_storage>
<stage13>
  <maxWeakCount>13</maxWeakCount>
  <stageThreshold>-5.8980816602706909e-01</stageThreshold>
  <weakClassifiers>
    <_>
      <internalNodes>
        0 -1 11322 1.0058708488941193e-02</internalNodes>
      <leafValues>
        1.1048159003257751e-01 -8.2978725433349609e-01</leafValues></_>
    <_>
      <internalNodes>
        0 -1 118248 -2.6137311942875385e-04</internalNodes>
      <leafValues>
        -4.3880885839462280e-01 2.4370621144771576e-01</leafValues></_>
    <_>
      <internalNodes>
        0 -1 141238 6.3466489315032959e-02</internalNodes>
      <leafValues>
        -1.7438751459121704e-01 7.6611447334289551e-01</leafValues></_>
    <_>
      <internalNodes>
        0 -1 8885 -2.1860856562852859e-02</internalNodes>
      <leafValues>
        5.6140077114105225e-01 -1.6137328743934631e-01</leafValues></_>
    <_>
      <internalNodes>
        0 -1 93111 2.6330759283155203e-04</internalNodes>
      <leafValues>
        2.2348095476627350e-01 -4.4368317723274231e-01</leafValues></_>
    <_>
      <internalNodes>
        0 -1 12549 4.3680978706106544e-04</internalNodes>
      <leafValues>
        2.3819105327129364e-01 -4.6760356426239014e-01</leafValues></_>
    <_>
      <internalNodes>
        0 -1 92430 -1.0388142615556717e-01</internalNodes>
      <leafValues>
        7.5142574310302734e-01 -1.5078170597553253e-01</leafValues></_>
    <_>
      <internalNodes>
        0 -1 67242 -5.8901578187942505e-02</internalNodes>
      <leafValues>
        -2.1846249699592590e-01 5.0977361202239990e-01</leafValues></_>
    <_>
      <internalNodes>
        0 -1 154735 -2.1907925605773926e-02</internalNodes>
      <leafValues>
        7.5808650255203247e-01 -1.1671751737594604e-01</leafValues></_>
    <_>
      <internalNodes>
        0 -1 49963 -9.8287202417850494e-03</internalNodes>
      <leafValues>
        5.5465471744537354e-01 -1.5334583818912506e-01</leafValues></_>
    <_>
      <internalNodes>
        0 -1 158251 6.9043293478898704e-05</internalNodes>
      <leafValues>
        2.5420764088630676e-01 -3.7869501113891602e-01</leafValues></_>
    <_>
      <internalNodes>
        0 -1 161320 2.0025526173412800e-03</internalNodes>
      <leafValues>
        -2.6541385054588318e-01 4.5687896013259888e-01</leafValues></_>
    <_>
      <internalNodes>
        0 -1 130899 4.9976841546595097e-04</internalNodes>
      <leafValues>
        2.6129710674285889e-01 -4.1939345002174377e-01</leafValues></_></weakClassifiers></stage13>
</opencv_storage>
