<?xml version="1.0"?>
<opencv_storage>
<stage11>
  <maxWeakCount>34</maxWeakCount>
  <stageThreshold>-1.0209177732467651e+00</stageThreshold>
  <weakClassifiers>
    <_>
      <internalNodes>
        0 -1 161239 6.0522123239934444e-03</internalNodes>
      <leafValues>
        -3.0255162715911865e-01 2.7372765541076660e-01</leafValues></_>
    <_>
      <internalNodes>
        0 -1 102723 -3.1260676681995392e-02</internalNodes>
      <leafValues>
        -7.2759419679641724e-01 1.0475817322731018e-01</leafValues></_>
    <_>
      <internalNodes>
        0 -1 26748 -6.2151961028575897e-03</internalNodes>
      <leafValues>
        2.6547569036483765e-01 -1.9091969728469849e-01</leafValues></_>
    <_>
      <internalNodes>
        0 -1 89799 -4.2365053668618202e-03</internalNodes>
      <leafValues>
        -5.6081575155258179e-01 1.0417339205741882e-01</leafValues></_>
    <_>
      <internalNodes>
        0 -1 134052 -1.0522833094000816e-02</internalNodes>
      <leafValues>
        -6.5369236469268799e-01 5.5309023708105087e-02</leafValues></_>
    <_>
      <internalNodes>
        0 -1 37243 -4.5097321271896362e-02</internalNodes>
      <leafValues>
        -5.2832424640655518e-01 7.9881429672241211e-02</leafValues></_>
    <_>
      <internalNodes>
        0 -1 2167 -5.6463265791535378e-03</internalNodes>
      <leafValues>
        3.9434558153152466e-01 -1.3199552893638611e-01</leafValues></_>
    <_>
      <internalNodes>
        0 -1 3178 -6.4606694504618645e-03</internalNodes>
      <leafValues>
        3.8074886798858643e-01 -1.3876962661743164e-01</leafValues></_>
    <_>
      <internalNodes>
        0 -1 161309 -4.2712842114269733e-03</internalNodes>
      <leafValues>
        4.2540666460990906e-01 -9.2587493360042572e-02</leafValues></_>
    <_>
      <internalNodes>
        0 -1 133697 -2.5178290903568268e-02</internalNodes>
      <leafValues>
        5.2253717184066772e-01 -2.7319293469190598e-02</leafValues></_>
    <_>
      <internalNodes>
        0 -1 115345 -1.9194977357983589e-02</internalNodes>
      <leafValues>
        2.8476461768150330e-01 -1.4832878112792969e-01</leafValues></_>
    <_>
      <internalNodes>
        0 -1 145551 -7.0396348834037781e-02</internalNodes>
      <leafValues>
        8.4404194355010986e-01 -8.3003610372543335e-02</leafValues></_>
    <_>
      <internalNodes>
        0 -1 10736 -4.7182668931782246e-03</internalNodes>
      <leafValues>
        -5.4969614744186401e-01 8.6717121303081512e-02</leafValues></_>
    <_>
      <internalNodes>
        0 -1 71190 1.1912781000137329e-01</internalNodes>
      <leafValues>
        -7.1124128997325897e-02 4.2907691001892090e-01</leafValues></_>
    <_>
      <internalNodes>
        0 -1 107108 -6.7942224442958832e-02</internalNodes>
      <leafValues>
        4.3709000945091248e-01 -9.1918930411338806e-02</leafValues></_>
    <_>
      <internalNodes>
        0 -1 103607 -5.9677439276129007e-04</internalNodes>
      <leafValues>
        3.2575330138206482e-01 -1.0402553528547287e-01</leafValues></_>
    <_>
      <internalNodes>
        0 -1 103607 3.3557732240296900e-04</internalNodes>
      <leafValues>
        -1.0382213443517685e-01 3.1903415918350220e-01</leafValues></_>
    <_>
      <internalNodes>
        0 -1 12549 -2.1488042548298836e-03</internalNodes>
      <leafValues>
        -5.1091694831848145e-01 5.6441158056259155e-02</leafValues></_>
    <_>
      <internalNodes>
        0 -1 55732 -3.9190471172332764e-02</internalNodes>
      <leafValues>
        3.3974054455757141e-01 -1.0058061778545380e-01</leafValues></_>
    <_>
      <internalNodes>
        0 -1 108675 -2.0329637452960014e-02</internalNodes>
      <leafValues>
        -8.4098827838897705e-01 4.4441174715757370e-02</leafValues></_>
    <_>
      <internalNodes>
        0 -1 122919 -4.7192478086799383e-04</internalNodes>
      <leafValues>
        2.5987017154693604e-01 -1.4593267440795898e-01</leafValues></_>
    <_>
      <internalNodes>
        0 -1 60294 2.5587854906916618e-02</internalNodes>
      <leafValues>
        -5.2498355507850647e-02 5.3208595514297485e-01</leafValues></_>
    <_>
      <internalNodes>
        0 -1 158977 2.5048140436410904e-02</internalNodes>
      <leafValues>
        -1.0533197969198227e-01 3.7764817476272583e-01</leafValues></_>
    <_>
      <internalNodes>
        0 -1 162103 -2.6571771129965782e-02</internalNodes>
      <leafValues>
        -1. 3.4862343221902847e-02</leafValues></_>
    <_>
      <internalNodes>
        0 -1 105859 -5.2073225378990173e-03</internalNodes>
      <leafValues>
        2.1702404320240021e-01 -1.7852182686328888e-01</leafValues></_>
    <_>
      <internalNodes>
        0 -1 154936 3.7224129773676395e-03</internalNodes>
      <leafValues>
        7.5945913791656494e-02 -5.0825774669647217e-01</leafValues></_>
    <_>
      <internalNodes>
        0 -1 104798 1.9203345291316509e-03</internalNodes>
      <leafValues>
        -1.8937832117080688e-01 1.8324752151966095e-01</leafValues></_>
    <_>
      <internalNodes>
        0 -1 93666 -1.4804598689079285e-01</internalNodes>
      <leafValues>
        4.6129611134529114e-01 -8.4482498466968536e-02</leafValues></_>
    <_>
      <internalNodes>
        0 -1 157724 2.6325859129428864e-02</internalNodes>
      <leafValues>
        -7.0474430918693542e-02 4.4227594137191772e-01</leafValues></_>
    <_>
      <internalNodes>
        0 -1 98210 4.5878529548645020e-02</internalNodes>
      <leafValues>
        -9.5752857625484467e-02 3.7041422724723816e-01</leafValues></_>
    <_>
      <internalNodes>
        0 -1 36139 6.9051288068294525e-02</internalNodes>
      <leafValues>
        6.4185254275798798e-02 -5.9544825553894043e-01</leafValues></_>
    <_>
      <internalNodes>
        0 -1 39999 6.0504611581563950e-02</internalNodes>
      <leafValues>
        -7.2981141507625580e-02 5.3235948085784912e-01</leafValues></_>
    <_>
      <internalNodes>
        0 -1 65574 9.5284264534711838e-03</internalNodes>
      <leafValues>
        5.5144570767879486e-02 -8.0552607774734497e-01</leafValues></_>
    <_>
      <internalNodes>
        0 -1 71526 2.1882958710193634e-02</internalNodes>
      <leafValues>
        -9.1096282005310059e-02 4.0814390778541565e-01</leafValues></_></weakClassifiers></stage11>
</opencv_storage>
