<?xml version="1.0"?>
<opencv_storage>
<stage18>
  <maxWeakCount>61</maxWeakCount>
  <stageThreshold>-8.1344085931777954e-01</stageThreshold>
  <weakClassifiers>
    <_>
      <internalNodes>
        0 -1 946 -1.9612919539213181e-02</internalNodes>
      <leafValues>
        2.1700879931449890e-01 -2.2811059653759003e-01</leafValues></_>
    <_>
      <internalNodes>
        0 -1 149612 -1.3341721892356873e-01</internalNodes>
      <leafValues>
        -2.0283830165863037e-01 1.2451429665088654e-01</leafValues></_>
    <_>
      <internalNodes>
        0 -1 154618 -6.1401911079883575e-03</internalNodes>
      <leafValues>
        -7.5415664911270142e-01 2.7317410334944725e-02</leafValues></_>
    <_>
      <internalNodes>
        0 -1 133996 -9.5076430588960648e-03</internalNodes>
      <leafValues>
        -6.5355563163757324e-01 4.2083650827407837e-02</leafValues></_>
    <_>
      <internalNodes>
        0 -1 161475 -2.3044650442898273e-03</internalNodes>
      <leafValues>
        2.8934213519096375e-01 -6.9430641829967499e-02</leafValues></_>
    <_>
      <internalNodes>
        0 -1 38540 -1.0018970817327499e-02</internalNodes>
      <leafValues>
        -3.6110913753509521e-01 3.1447581946849823e-02</leafValues></_>
    <_>
      <internalNodes>
        0 -1 156593 1.4109432697296143e-02</internalNodes>
      <leafValues>
        3.7202462553977966e-02 -6.1389422416687012e-01</leafValues></_>
    <_>
      <internalNodes>
        0 -1 98620 -2.6567298918962479e-03</internalNodes>
      <leafValues>
        -3.7840530276298523e-01 5.1883190870285034e-02</leafValues></_>
    <_>
      <internalNodes>
        0 -1 132522 3.7139505147933960e-02</internalNodes>
      <leafValues>
        -2.5763681158423424e-02 8.6261785030364990e-01</leafValues></_>
    <_>
      <internalNodes>
        0 -1 33245 -1.9819576293230057e-02</internalNodes>
      <leafValues>
        -9.2461234331130981e-01 1.1583496816456318e-02</leafValues></_>
    <_>
      <internalNodes>
        0 -1 46772 -2.1589498966932297e-02</internalNodes>
      <leafValues>
        -6.3678860664367676e-01 3.6448191851377487e-02</leafValues></_>
    <_>
      <internalNodes>
        0 -1 154720 2.7986878529191017e-02</internalNodes>
      <leafValues>
        -4.7545704990625381e-02 4.8520836234092712e-01</leafValues></_>
    <_>
      <internalNodes>
        0 -1 131821 -2.3772704880684614e-03</internalNodes>
      <leafValues>
        2.6821893453598022e-01 -7.5082793831825256e-02</leafValues></_>
    <_>
      <internalNodes>
        0 -1 108306 -3.4908400848507881e-03</internalNodes>
      <leafValues>
        1.8324008584022522e-01 -1.1802003532648087e-01</leafValues></_>
    <_>
      <internalNodes>
        0 -1 144690 -4.7747202217578888e-02</internalNodes>
      <leafValues>
        2.7324560284614563e-01 -9.5465734601020813e-02</leafValues></_>
    <_>
      <internalNodes>
        0 -1 17170 1.8561053276062012e-01</internalNodes>
      <leafValues>
        -9.2755153775215149e-02 2.6365530490875244e-01</leafValues></_>
    <_>
      <internalNodes>
        0 -1 56967 -2.1757041104137897e-03</internalNodes>
      <leafValues>
        1.8849673867225647e-01 -1.2655614316463470e-01</leafValues></_>
    <_>
      <internalNodes>
        0 -1 703 1.1272914707660675e-02</internalNodes>
      <leafValues>
        -1.0261946171522141e-01 2.4782539904117584e-01</leafValues></_>
    <_>
      <internalNodes>
        0 -1 3615 -1.5835254453122616e-03</internalNodes>
      <leafValues>
        1.9209958612918854e-01 -1.3568671047687531e-01</leafValues></_>
    <_>
      <internalNodes>
        0 -1 86797 -5.3597111254930496e-03</internalNodes>
      <leafValues>
        2.2553366422653198e-01 -1.0398443788290024e-01</leafValues></_>
    <_>
      <internalNodes>
        0 -1 12672 -2.7361556421965361e-03</internalNodes>
      <leafValues>
        -2.6811414957046509e-01 8.4474749863147736e-02</leafValues></_>
    <_>
      <internalNodes>
        0 -1 150989 -9.1087783221155405e-04</internalNodes>
      <leafValues>
        2.4971342086791992e-01 -9.4034820795059204e-02</leafValues></_>
    <_>
      <internalNodes>
        0 -1 37899 6.9733464624732733e-04</internalNodes>
      <leafValues>
        9.2108473181724548e-02 -2.1714907884597778e-01</leafValues></_>
    <_>
      <internalNodes>
        0 -1 112181 7.8162748832255602e-04</internalNodes>
      <leafValues>
        -1.6049537062644958e-01 1.2738183140754700e-01</leafValues></_>
    <_>
      <internalNodes>
        0 -1 105114 -2.6066525606438518e-04</internalNodes>
      <leafValues>
        2.0616690814495087e-01 -1.1531393975019455e-01</leafValues></_>
    <_>
      <internalNodes>
        0 -1 113555 5.8546665968606248e-05</internalNodes>
      <leafValues>
        1.4154350757598877e-01 -1.5080973505973816e-01</leafValues></_>
    <_>
      <internalNodes>
        0 -1 159413 -5.0461394712328911e-03</internalNodes>
      <leafValues>
        -6.9768732786178589e-01 2.0126285031437874e-02</leafValues></_>
    <_>
      <internalNodes>
        0 -1 1185 1.7125583253800869e-03</internalNodes>
      <leafValues>
        6.8362332880496979e-02 -2.7382028102874756e-01</leafValues></_>
    <_>
      <internalNodes>
        0 -1 49491 2.0943797426298261e-04</internalNodes>
      <leafValues>
        -1.1205387860536575e-01 1.9821913540363312e-01</leafValues></_>
    <_>
      <internalNodes>
        0 -1 1154 -9.1699920594692230e-03</internalNodes>
      <leafValues>
        3.1650936603546143e-01 -7.6386637985706329e-02</leafValues></_>
    <_>
      <internalNodes>
        0 -1 2170 2.1099257282912731e-03</internalNodes>
      <leafValues>
        -1.1942739784717560e-01 2.3760494589805603e-01</leafValues></_>
    <_>
      <internalNodes>
        0 -1 104904 -3.6087967455387115e-03</internalNodes>
      <leafValues>
        -4.6902038156986237e-02 6.2487620115280151e-01</leafValues></_>
    <_>
      <internalNodes>
        0 -1 2835 -1.8649309873580933e-01</internalNodes>
      <leafValues>
        7.5470614433288574e-01 -2.0507205277681351e-02</leafValues></_>
    <_>
      <internalNodes>
        0 -1 90145 -1.0088169947266579e-02</internalNodes>
      <leafValues>
        4.6532785892486572e-01 -3.9622452110052109e-02</leafValues></_>
    <_>
      <internalNodes>
        0 -1 120128 4.3893838301301003e-04</internalNodes>
      <leafValues>
        -7.9224243760108948e-02 2.6189443469047546e-01</leafValues></_>
    <_>
      <internalNodes>
        0 -1 49188 -2.0545762032270432e-02</internalNodes>
      <leafValues>
        4.3361499905586243e-01 -5.0483636558055878e-02</leafValues></_>
    <_>
      <internalNodes>
        0 -1 5531 8.1328995525836945e-02</internalNodes>
      <leafValues>
        -2.9318349435925484e-02 6.8626451492309570e-01</leafValues></_>
    <_>
      <internalNodes>
        0 -1 64319 -1.3543693348765373e-02</internalNodes>
      <leafValues>
        -6.7942523956298828e-01 3.6091860383749008e-02</leafValues></_>
    <_>
      <internalNodes>
        0 -1 80692 -1.9918135367333889e-03</internalNodes>
      <leafValues>
        -4.8550313711166382e-01 4.1203152388334274e-02</leafValues></_>
    <_>
      <internalNodes>
        0 -1 149067 4.3569402769207954e-03</internalNodes>
      <leafValues>
        -4.5504953712224960e-02 5.0767290592193604e-01</leafValues></_>
    <_>
      <internalNodes>
        0 -1 155224 5.4896934889256954e-03</internalNodes>
      <leafValues>
        -4.7719165682792664e-02 4.3660330772399902e-01</leafValues></_>
    <_>
      <internalNodes>
        0 -1 159469 7.8835990279912949e-05</internalNodes>
      <leafValues>
        1.4117504656314850e-01 -1.7654027044773102e-01</leafValues></_>
    <_>
      <internalNodes>
        0 -1 26099 1.3669908046722412e-01</internalNodes>
      <leafValues>
        -4.1419990360736847e-02 6.1837744712829590e-01</leafValues></_>
    <_>
      <internalNodes>
        0 -1 287 -1.8731005489826202e-02</internalNodes>
      <leafValues>
        1.9817563891410828e-01 -1.1998566985130310e-01</leafValues></_>
    <_>
      <internalNodes>
        0 -1 161660 -3.3141365274786949e-03</internalNodes>
      <leafValues>
        2.7869290113449097e-01 -7.7879913151264191e-02</leafValues></_>
    <_>
      <internalNodes>
        0 -1 160678 5.9367334470152855e-03</internalNodes>
      <leafValues>
        7.4494749307632446e-02 -4.0335288643836975e-01</leafValues></_>
    <_>
      <internalNodes>
        0 -1 13792 8.3764232695102692e-03</internalNodes>
      <leafValues>
        6.1285141855478287e-02 -3.7186241149902344e-01</leafValues></_>
    <_>
      <internalNodes>
        0 -1 153896 4.7170959413051605e-02</internalNodes>
      <leafValues>
        -3.8468267768621445e-02 8.1334429979324341e-01</leafValues></_>
    <_>
      <internalNodes>
        0 -1 161610 9.5013082027435303e-03</internalNodes>
      <leafValues>
        -4.4487193226814270e-02 4.5430642366409302e-01</leafValues></_>
    <_>
      <internalNodes>
        0 -1 27785 -9.7733428701758385e-03</internalNodes>
      <leafValues>
        -5.2274417877197266e-01 4.7279156744480133e-02</leafValues></_>
    <_>
      <internalNodes>
        0 -1 1319 3.7410974502563477e-02</internalNodes>
      <leafValues>
        -6.4052291214466095e-02 4.2480215430259705e-01</leafValues></_>
    <_>
      <internalNodes>
        0 -1 145341 5.7147088227793574e-04</internalNodes>
      <leafValues>
        9.3029543757438660e-02 -2.4960997700691223e-01</leafValues></_>
    <_>
      <internalNodes>
        0 -1 158025 -3.3615630120038986e-02</internalNodes>
      <leafValues>
        8.3701705932617188e-01 -3.2486885786056519e-02</leafValues></_>
    <_>
      <internalNodes>
        0 -1 83524 2.4317755014635623e-04</internalNodes>
      <leafValues>
        9.5616281032562256e-02 -2.5151193141937256e-01</leafValues></_>
    <_>
      <internalNodes>
        0 -1 12858 -5.8777616359293461e-03</internalNodes>
      <leafValues>
        2.1660414338111877e-01 -1.0852052271366119e-01</leafValues></_>
    <_>
      <internalNodes>
        0 -1 66785 9.0083526447415352e-04</internalNodes>
      <leafValues>
        -1.0711368173360825e-01 1.8956296145915985e-01</leafValues></_>
    <_>
      <internalNodes>
        0 -1 60611 2.7590759564191103e-03</internalNodes>
      <leafValues>
        -1.0163451731204987e-01 2.0253886282444000e-01</leafValues></_>
    <_>
      <internalNodes>
        0 -1 51757 -2.3283573985099792e-01</internalNodes>
      <leafValues>
        3.5033780336380005e-01 -6.8221233785152435e-02</leafValues></_>
    <_>
      <internalNodes>
        0 -1 135815 3.7764576263725758e-03</internalNodes>
      <leafValues>
        -7.2090812027454376e-02 3.2749882340431213e-01</leafValues></_>
    <_>
      <internalNodes>
        0 -1 109718 -1.0398674756288528e-02</internalNodes>
      <leafValues>
        -4.0771480649709702e-02 4.9479374289512634e-01</leafValues></_>
    <_>
      <internalNodes>
        0 -1 152743 -4.8642382025718689e-03</internalNodes>
      <leafValues>
        5.2114970982074738e-02 -4.6820330619812012e-01</leafValues></_></weakClassifiers></stage18>
</opencv_storage>
