<?xml version="1.0"?>
<opencv_storage>
<stage17>
  <maxWeakCount>22</maxWeakCount>
  <stageThreshold>-9.4355440139770508e-01</stageThreshold>
  <weakClassifiers>
    <_>
      <internalNodes>
        0 -1 148382 -9.1329943388700485e-03</internalNodes>
      <leafValues>
        -1.3737075030803680e-01 6.3855421543121338e-01</leafValues></_>
    <_>
      <internalNodes>
        0 -1 25776 8.7464526295661926e-03</internalNodes>
      <leafValues>
        -1.7335285246372223e-01 5.8440810441970825e-01</leafValues></_>
    <_>
      <internalNodes>
        0 -1 121720 3.7065658252686262e-03</internalNodes>
      <leafValues>
        2.1241237223148346e-01 -3.3953997492790222e-01</leafValues></_>
    <_>
      <internalNodes>
        0 -1 17260 4.6555828303098679e-03</internalNodes>
      <leafValues>
        -1.9848646223545074e-01 3.4595337510108948e-01</leafValues></_>
    <_>
      <internalNodes>
        0 -1 70699 -6.2356963753700256e-03</internalNodes>
      <leafValues>
        4.0499308705329895e-01 -1.4484371244907379e-01</leafValues></_>
    <_>
      <internalNodes>
        0 -1 69855 5.5795903317630291e-03</internalNodes>
      <leafValues>
        -6.9569066166877747e-02 6.8277710676193237e-01</leafValues></_>
    <_>
      <internalNodes>
        0 -1 162124 1.1984012089669704e-03</internalNodes>
      <leafValues>
        2.0845450460910797e-01 -3.9987799525260925e-01</leafValues></_>
    <_>
      <internalNodes>
        0 -1 90339 -9.9594667553901672e-03</internalNodes>
      <leafValues>
        6.0335171222686768e-01 -1.9115382432937622e-01</leafValues></_>
    <_>
      <internalNodes>
        0 -1 129026 -1.2149868998676538e-03</internalNodes>
      <leafValues>
        5.6497091054916382e-01 -5.5623475462198257e-02</leafValues></_>
    <_>
      <internalNodes>
        0 -1 146632 -3.6828062729910016e-04</internalNodes>
      <leafValues>
        3.9130291342735291e-01 -1.6188383102416992e-01</leafValues></_>
    <_>
      <internalNodes>
        0 -1 73912 1.3898970792070031e-03</internalNodes>
      <leafValues>
        -1.3049760460853577e-01 4.3393737077713013e-01</leafValues></_>
    <_>
      <internalNodes>
        0 -1 129387 9.3549041775986552e-04</internalNodes>
      <leafValues>
        -1.3938890397548676e-01 4.1976252198219299e-01</leafValues></_>
    <_>
      <internalNodes>
        0 -1 161809 -5.4236967116594315e-03</internalNodes>
      <leafValues>
        4.4171279668807983e-01 -1.3214963674545288e-01</leafValues></_>
    <_>
      <internalNodes>
        0 -1 104863 -1.4280544128268957e-03</internalNodes>
      <leafValues>
        4.3931812047958374e-01 -1.3818779587745667e-01</leafValues></_>
    <_>
      <internalNodes>
        0 -1 155886 6.7370180040597916e-03</internalNodes>
      <leafValues>
        -1.4432506263256073e-01 3.5513007640838623e-01</leafValues></_>
    <_>
      <internalNodes>
        0 -1 2074 -4.8553347587585449e-03</internalNodes>
      <leafValues>
        2.5291523337364197e-01 -2.2401942312717438e-01</leafValues></_>
    <_>
      <internalNodes>
        0 -1 134947 -2.7054987847805023e-02</internalNodes>
      <leafValues>
        4.6255388855934143e-01 -1.5216068923473358e-01</leafValues></_>
    <_>
      <internalNodes>
        0 -1 51305 8.3481159526854753e-04</internalNodes>
      <leafValues>
        -2.1369843184947968e-01 2.9900902509689331e-01</leafValues></_>
    <_>
      <internalNodes>
        0 -1 21968 6.0819879174232483e-02</internalNodes>
      <leafValues>
        -1.7444632947444916e-01 3.4670060873031616e-01</leafValues></_>
    <_>
      <internalNodes>
        0 -1 42285 -1.0170500725507736e-02</internalNodes>
      <leafValues>
        4.4759777188301086e-01 -1.2314813584089279e-01</leafValues></_>
    <_>
      <internalNodes>
        0 -1 205 -4.5610323548316956e-02</internalNodes>
      <leafValues>
        -3.9995461702346802e-01 1.6896043717861176e-01</leafValues></_>
    <_>
      <internalNodes>
        0 -1 148212 3.3726217225193977e-03</internalNodes>
      <leafValues>
        -1.1202679574489594e-01 5.8916211128234863e-01</leafValues></_></weakClassifiers></stage17>
</opencv_storage>
