<?xml version="1.0"?>
<opencv_storage>
<stage6>
  <maxWeakCount>11</maxWeakCount>
  <stageThreshold>-1.0799862146377563e+00</stageThreshold>
  <weakClassifiers>
    <_>
      <internalNodes>
        0 -1 152844 2.6172103360295296e-02</internalNodes>
      <leafValues>
        -2.6642334461212158e-01 5.0000000000000000e-01</leafValues></_>
    <_>
      <internalNodes>
        0 -1 10126 2.4529445916414261e-02</internalNodes>
      <leafValues>
        -1.9526045024394989e-01 6.9034016132354736e-01</leafValues></_>
    <_>
      <internalNodes>
        0 -1 41568 -6.6688032820820808e-03</internalNodes>
      <leafValues>
        6.5086817741394043e-01 -1.6692809760570526e-01</leafValues></_>
    <_>
      <internalNodes>
        0 -1 137225 9.0208062902092934e-03</internalNodes>
      <leafValues>
        -2.7613350749015808e-01 4.1465288400650024e-01</leafValues></_>
    <_>
      <internalNodes>
        0 -1 162314 -8.9068785309791565e-03</internalNodes>
      <leafValues>
        -1.3065396249294281e-01 7.2743499279022217e-01</leafValues></_>
    <_>
      <internalNodes>
        0 -1 4128 -4.1511785238981247e-03</internalNodes>
      <leafValues>
        5.3985899686813354e-01 -2.1976681053638458e-01</leafValues></_>
    <_>
      <internalNodes>
        0 -1 2185 3.7801957223564386e-03</internalNodes>
      <leafValues>
        -1.5774884819984436e-01 5.6224018335342407e-01</leafValues></_>
    <_>
      <internalNodes>
        0 -1 117611 -8.6922240257263184e-01</internalNodes>
      <leafValues>
        -8.5852462053298950e-01 1.2765783071517944e-01</leafValues></_>
    <_>
      <internalNodes>
        0 -1 154656 -1.6514861490577459e-03</internalNodes>
      <leafValues>
        5.1701104640960693e-01 -2.2837439179420471e-01</leafValues></_>
    <_>
      <internalNodes>
        0 -1 11117 -1.1314800009131432e-02</internalNodes>
      <leafValues>
        5.0844532251358032e-01 -2.4056310951709747e-01</leafValues></_>
    <_>
      <internalNodes>
        0 -1 160770 1.1675788555294275e-03</internalNodes>
      <leafValues>
        -1.8388041853904724e-01 5.1256030797958374e-01</leafValues></_></weakClassifiers></stage6>
</opencv_storage>
