<?xml version="1.0"?>
<opencv_storage>
<stage12>
  <maxWeakCount>19</maxWeakCount>
  <stageThreshold>-7.7952009439468384e-01</stageThreshold>
  <weakClassifiers>
    <_>
      <internalNodes>
        0 -1 134631 6.5268814796581864e-04</internalNodes>
      <leafValues>
        -1.5955765545368195e-01 4.8031497001647949e-01</leafValues></_>
    <_>
      <internalNodes>
        0 -1 27577 -6.5215099602937698e-03</internalNodes>
      <leafValues>
        3.8695782423019409e-01 -1.5252283215522766e-01</leafValues></_>
    <_>
      <internalNodes>
        0 -1 3170 -2.1221998613327742e-03</internalNodes>
      <leafValues>
        3.0086410045623779e-01 -1.9919782876968384e-01</leafValues></_>
    <_>
      <internalNodes>
        0 -1 11057 5.3198011592030525e-03</internalNodes>
      <leafValues>
        -1.4990390837192535e-01 5.3961277008056641e-01</leafValues></_>
    <_>
      <internalNodes>
        0 -1 120690 4.3851751834154129e-03</internalNodes>
      <leafValues>
        -1.4925840497016907e-01 3.7707501649856567e-01</leafValues></_>
    <_>
      <internalNodes>
        0 -1 3248 -5.5711343884468079e-03</internalNodes>
      <leafValues>
        2.9636102914810181e-01 -2.0202180743217468e-01</leafValues></_>
    <_>
      <internalNodes>
        0 -1 1090 5.4743655025959015e-02</internalNodes>
      <leafValues>
        -1.2312302738428116e-01 4.9436074495315552e-01</leafValues></_>
    <_>
      <internalNodes>
        0 -1 161261 1.4452156028710306e-04</internalNodes>
      <leafValues>
        2.1479041874408722e-01 -3.7447032332420349e-01</leafValues></_>
    <_>
      <internalNodes>
        0 -1 162122 -1.6795462579466403e-04</internalNodes>
      <leafValues>
        -3.5672858357429504e-01 1.6655388474464417e-01</leafValues></_>
    <_>
      <internalNodes>
        0 -1 161230 -8.2258218899369240e-03</internalNodes>
      <leafValues>
        4.9310290813446045e-01 -1.4467413723468781e-01</leafValues></_>
    <_>
      <internalNodes>
        0 -1 121187 4.6931696124374866e-03</internalNodes>
      <leafValues>
        -1.6520865261554718e-01 4.1451230645179749e-01</leafValues></_>
    <_>
      <internalNodes>
        0 -1 161842 -2.0451792515814304e-03</internalNodes>
      <leafValues>
        4.5430368185043335e-01 -1.4504219591617584e-01</leafValues></_>
    <_>
      <internalNodes>
        0 -1 110761 -1.9734315574169159e-03</internalNodes>
      <leafValues>
        3.4835788607597351e-01 -1.7173698544502258e-01</leafValues></_>
    <_>
      <internalNodes>
        0 -1 49454 -5.6591685861349106e-03</internalNodes>
      <leafValues>
        3.6513465642929077e-01 -1.7510099709033966e-01</leafValues></_>
    <_>
      <internalNodes>
        0 -1 150994 1.3585210544988513e-03</internalNodes>
      <leafValues>
        -1.5267883241176605e-01 4.3038210272789001e-01</leafValues></_>
    <_>
      <internalNodes>
        0 -1 35882 4.3500498868525028e-03</internalNodes>
      <leafValues>
        -1.6045492887496948e-01 4.0094041824340820e-01</leafValues></_>
    <_>
      <internalNodes>
        0 -1 88549 1.2398348189890385e-03</internalNodes>
      <leafValues>
        -1.7892736196517944e-01 3.5340094566345215e-01</leafValues></_>
    <_>
      <internalNodes>
        0 -1 1 -7.3233648436143994e-05</internalNodes>
      <leafValues>
        -3.4984308481216431e-01 2.1899989247322083e-01</leafValues></_>
    <_>
      <internalNodes>
        0 -1 75152 -3.1814478337764740e-02</internalNodes>
      <leafValues>
        -8.9058089256286621e-01 5.7300291955471039e-02</leafValues></_></weakClassifiers></stage12>
</opencv_storage>
