<?xml version="1.0"?>
<opencv_storage>
<cascade>
  <stageType>BOOST</stageType>
  <featureType>HAAR</featureType>
  <height>24</height>
  <width>24</width>
  <stageParams>
    <boostType>GAB</boostType>
    <minHitRate>9.9500000476837158e-01</minHitRate>
    <maxFalseAlarm>5.0000000000000000e-01</maxFalseAlarm>
    <weightTrimRate>9.4999999999999996e-01</weightTrimRate>
    <maxDepth>1</maxDepth>
    <maxWeakCount>100</maxWeakCount></stageParams>
  <featureParams>
    <maxCatCount>0</maxCatCount>
    <featSize>1</featSize>
    <mode>BASIC</mode></featureParams>
  <stageNum>25</stageNum>
  <stages>
    <!-- stage 0 -->
    <_>
      <maxWeakCount>11</maxWeakCount>
      <stageThreshold>-8.5782796144485474e-01</stageThreshold>
      <weakClassifiers>
        <_>
          <internalNodes>
            0 -1 420 -8.8472792413085699e-04</internalNodes>
          <leafValues>
            -7.9775279760360718e-01 1.5211969614028931e-01</leafValues></_>
        <_>
          <internalNodes>
            0 -1 279 -1.5246906876564026e-01</internalNodes>
          <leafValues>
            8.4435719251632690e-01 -1.8676365911960602e-01</leafValues></_>
        <_>
          <internalNodes>
            0 -1 420 3.0762742972001433e-04</internalNodes>
          <leafValues>
            2.6254048943519592e-01 -5.4807376861572266e-01</leafValues></_>
        <_>
          <internalNodes>
            0 -1 339 5.9287115931510925e-02</internalNodes>
          <leafValues>
            -2.3463530838489532e-01 7.8689831495285034e-01</leafValues></_>
        <_>
          <internalNodes>
            0 -1 105 -3.6876177182421088e-04</internalNodes>
          <leafValues>
            -5.5164629220962524e-01 2.8716444969177246e-01</leafValues></_>
        <_>
          <internalNodes>
            0 -1 421 -4.1974836494773626e-04</internalNodes>
          <leafValues>
            -5.9167182445526123e-01 2.1444393694400787e-01</leafValues></_>
        <_>
          <internalNodes>
            0 -1 421 6.6651374800130725e-04</internalNodes>
          <leafValues>
            8.6116917431354523e-02 -7.7476739883422852e-01</leafValues></_>
        <_>
          <internalNodes>
            0 -1 68 1.0818894952535629e-03</internalNodes>
          <leafValues>
            1.6151341795921326e-01 -7.3567527532577515e-01</leafValues></_>
        <_>
          <internalNodes>
            0 -1 609 5.3689710330218077e-04</internalNodes>
          <leafValues>
            1.5114091336727142e-01 -6.1798143386840820e-01</leafValues></_>
        <_>
          <internalNodes>
            0 -1 192 4.0727950632572174e-02</internalNodes>
          <leafValues>
            -2.1764077246189117e-01 6.2389856576919556e-01</leafValues></_>
        <_>
          <internalNodes>
            0 -1 428 8.8628986850380898e-04</internalNodes>
          <leafValues>
            2.2216024994850159e-01 -6.2902480363845825e-01</leafValues></_></weakClassifiers></_>
    <!-- stage 1 -->
    <_>
      <maxWeakCount>13</maxWeakCount>
      <stageThreshold>-9.7081089019775391e-01</stageThreshold>
      <weakClassifiers>
        <_>
          <internalNodes>
            0 -1 214 -1.4759507775306702e-01</internalNodes>
          <leafValues>
            8.0368095636367798e-01 -1.8482251465320587e-01</leafValues></_>
        <_>
          <internalNodes>
            0 -1 168 -7.5956329703330994e-02</internalNodes>
          <leafValues>
            5.7810437679290771e-01 -1.8467190861701965e-01</leafValues></_>
        <_>
          <internalNodes>
            0 -1 332 -2.8143238159827888e-04</internalNodes>
          <leafValues>
            -5.0679862499237061e-01 1.8468146026134491e-01</leafValues></_>
        <_>
          <internalNodes>
            0 -1 353 -6.2706604599952698e-02</internalNodes>
          <leafValues>
            -1.0453413426876068e-01 9.3260914087295532e-01</leafValues></_>
        <_>
          <internalNodes>
            0 -1 268 -5.6737303733825684e-02</internalNodes>
          <leafValues>
            5.3571867942810059e-01 -1.7311944067478180e-01</leafValues></_>
        <_>
          <internalNodes>
            0 -1 45 -1.6402426408603787e-03</internalNodes>
          <leafValues>
            -8.4121394157409668e-01 9.1449402272701263e-02</leafValues></_>
        <_>
          <internalNodes>
            0 -1 350 5.2330538630485535e-02</internalNodes>
          <leafValues>
            -1.3217927515506744e-01 5.3114503622055054e-01</leafValues></_>
        <_>
          <internalNodes>
            0 -1 67 9.2558021424338222e-04</internalNodes>
          <leafValues>
            1.3978962600231171e-01 -7.3125886917114258e-01</leafValues></_>
        <_>
          <internalNodes>
            0 -1 416 3.3358082175254822e-02</internalNodes>
          <leafValues>
            -1.5787908434867859e-01 5.7246923446655273e-01</leafValues></_>
        <_>
          <internalNodes>
            0 -1 499 1.4209485379979014e-03</internalNodes>
          <leafValues>
            1.4468899369239807e-01 -6.1164432764053345e-01</leafValues></_>
        <_>
          <internalNodes>
            0 -1 80 2.0427578128874302e-03</internalNodes>
          <leafValues>
            8.7181217968463898e-02 -6.6222620010375977e-01</leafValues></_>
        <_>
          <internalNodes>
            0 -1 170 2.7004245668649673e-02</internalNodes>
          <leafValues>
            -1.2976084649562836e-01 5.3504306077957153e-01</leafValues></_>
        <_>
          <internalNodes>
            0 -1 152 -3.4062201157212257e-03</internalNodes>
          <leafValues>
            -5.2758485078811646e-01 1.3984575867652893e-01</leafValues></_></weakClassifiers></_>
    <!-- stage 2 -->
    <_>
      <maxWeakCount>17</maxWeakCount>
      <stageThreshold>-1.1501240730285645e+00</stageThreshold>
      <weakClassifiers>
        <_>
          <internalNodes>
            0 -1 281 -1.2694317102432251e-01</internalNodes>
          <leafValues>
            7.8417265415191650e-01 -1.5338882803916931e-01</leafValues></_>
        <_>
          <internalNodes>
            0 -1 277 1.0034850239753723e-01</internalNodes>
          <leafValues>
            -1.0850203782320023e-01 6.4264965057373047e-01</leafValues></_>
        <_>
          <internalNodes>
            0 -1 422 1.8609245307743549e-03</internalNodes>
          <leafValues>
            1.3010427355766296e-01 -6.1479008197784424e-01</leafValues></_>
        <_>
          <internalNodes>
            0 -1 531 3.8054020842537284e-04</internalNodes>
          <leafValues>
            1.2637941539287567e-01 -5.0394976139068604e-01</leafValues></_>
        <_>
          <internalNodes>
            0 -1 400 7.4108601547777653e-03</internalNodes>
          <leafValues>
            -1.7723502218723297e-01 4.2010620236396790e-01</leafValues></_>
        <_>
          <internalNodes>
            0 -1 405 -1.9035186618566513e-02</internalNodes>
          <leafValues>
            3.4791913628578186e-01 -2.7098995447158813e-01</leafValues></_>
        <_>
          <internalNodes>
            0 -1 348 -3.9285391569137573e-02</internalNodes>
          <leafValues>
            4.6796068549156189e-01 -1.4062394201755524e-01</leafValues></_>
        <_>
          <internalNodes>
            0 -1 471 5.6847017258405685e-03</internalNodes>
          <leafValues>
            -1.9525693356990814e-01 4.6145066618919373e-01</leafValues></_>
        <_>
          <internalNodes>
            0 -1 479 4.1761831380426884e-04</internalNodes>
          <leafValues>
            1.3435533642768860e-01 -5.2159184217453003e-01</leafValues></_>
        <_>
          <internalNodes>
            0 -1 480 -7.3712050914764404e-02</internalNodes>
          <leafValues>
            -8.7357366085052490e-01 6.9847635924816132e-02</leafValues></_>
        <_>
          <internalNodes>
            0 -1 227 -1.8187457695603371e-02</internalNodes>
          <leafValues>
            3.3635437488555908e-01 -2.1728149056434631e-01</leafValues></_>
        <_>
          <internalNodes>
            0 -1 355 2.8719831607304513e-04</internalNodes>
          <leafValues>
            2.2303731739521027e-01 -3.4200379252433777e-01</leafValues></_>
        <_>
          <internalNodes>
            0 -1 613 2.1409778855741024e-04</internalNodes>
          <leafValues>
            9.1807611286640167e-02 -4.5883172750473022e-01</leafValues></_>
        <_>
          <internalNodes>
            0 -1 372 9.1874273493885994e-03</internalNodes>
          <leafValues>
            -1.2390035390853882e-01 4.6764567494392395e-01</leafValues></_>
        <_>
          <internalNodes>
            0 -1 297 9.2192087322473526e-04</internalNodes>
          <leafValues>
            1.1057554930448532e-01 -5.4028195142745972e-01</leafValues></_>
        <_>
          <internalNodes>
            0 -1 434 -3.6745420657098293e-03</internalNodes>
          <leafValues>
            3.6478909850120544e-01 -1.5947228670120239e-01</leafValues></_>
        <_>
          <internalNodes>
            0 -1 331 -6.9023889955133200e-04</internalNodes>
          <leafValues>
            -5.9898805618286133e-01 1.0441261529922485e-01</leafValues></_></weakClassifiers></_>
    <!-- stage 3 -->
    <_>
      <maxWeakCount>23</maxWeakCount>
      <stageThreshold>-8.2629567384719849e-01</stageThreshold>
      <weakClassifiers>
        <_>
          <internalNodes>
            0 -1 246 -1.5365703403949738e-01</internalNodes>
          <leafValues>
            6.0784316062927246e-01 -1.3663844764232635e-01</leafValues></_>
        <_>
          <internalNodes>
            0 -1 283 8.1942811608314514e-02</internalNodes>
          <leafValues>
            -1.0145330429077148e-01 6.8036091327667236e-01</leafValues></_>
        <_>
          <internalNodes>
            0 -1 453 -3.8808211684226990e-04</internalNodes>
          <leafValues>
            -3.7282747030258179e-01 1.5457713603973389e-01</leafValues></_>
        <_>
          <internalNodes>
            0 -1 233 9.4509258866310120e-02</internalNodes>
          <leafValues>
            -1.6533052921295166e-01 4.5135855674743652e-01</leafValues></_>
        <_>
          <internalNodes>
            0 -1 335 -4.3001486919820309e-03</internalNodes>
          <leafValues>
            3.2820168137550354e-01 -1.3281716406345367e-01</leafValues></_>
        <_>
          <internalNodes>
            0 -1 77 6.4415845554322004e-04</internalNodes>
          <leafValues>
            9.3229137361049652e-02 -5.9138160943984985e-01</leafValues></_>
        <_>
          <internalNodes>
            0 -1 365 -3.8888506591320038e-02</internalNodes>
          <leafValues>
            3.4905499219894409e-01 -1.3167379796504974e-01</leafValues></_>
        <_>
          <internalNodes>
            0 -1 389 5.5053725838661194e-02</internalNodes>
          <leafValues>
            -9.1602005064487457e-02 5.6267714500427246e-01</leafValues></_>
        <_>
          <internalNodes>
            0 -1 172 7.1339309215545654e-03</internalNodes>
          <leafValues>
            -1.6180709004402161e-01 2.9086783528327942e-01</leafValues></_>
        <_>
          <internalNodes>
            0 -1 64 1.8310647283215076e-04</internalNodes>
          <leafValues>
            1.3500900566577911e-01 -4.0617287158966064e-01</leafValues></_>
        <_>
          <internalNodes>
            0 -1 544 6.4151422120630741e-03</internalNodes>
          <leafValues>
            -1.2858438491821289e-01 3.8676369190216064e-01</leafValues></_>
        <_>
          <internalNodes>
            0 -1 463 -1.5379653312265873e-02</internalNodes>
          <leafValues>
            4.0681356191635132e-01 -1.1991588026285172e-01</leafValues></_>
        <_>
          <internalNodes>
            0 -1 118 -5.0131732132285833e-04</internalNodes>
          <leafValues>
            -5.6387120485305786e-01 9.4347089529037476e-02</leafValues></_>
        <_>
          <internalNodes>
            0 -1 287 1.0855770669877529e-03</internalNodes>
          <leafValues>
            -1.4540289342403412e-01 4.0124449133872986e-01</leafValues></_>
        <_>
          <internalNodes>
            0 -1 71 1.1454659397713840e-04</internalNodes>
          <leafValues>
            1.9654899835586548e-01 -2.7642104029655457e-01</leafValues></_>
        <_>
          <internalNodes>
            0 -1 41 -3.5359805915504694e-03</internalNodes>
          <leafValues>
            2.7689710259437561e-01 -1.9416821002960205e-01</leafValues></_>
        <_>
          <internalNodes>
            0 -1 138 -1.7037333920598030e-02</internalNodes>
          <leafValues>
            5.8940732479095459e-01 -9.5083303749561310e-02</leafValues></_>
        <_>
          <internalNodes>
            0 -1 65 3.1208306609187275e-05</internalNodes>
          <leafValues>
            2.2357244789600372e-01 -2.1924456954002380e-01</leafValues></_>
        <_>
          <internalNodes>
            0 -1 387 -6.5296083688735962e-02</internalNodes>
          <leafValues>
            5.5373084545135498e-01 -9.9583327770233154e-02</leafValues></_>
        <_>
          <internalNodes>
            0 -1 270 -9.7014997154474258e-03</internalNodes>
          <leafValues>
            3.6481335759162903e-01 -1.2033321708440781e-01</leafValues></_>
        <_>
          <internalNodes>
            0 -1 549 -8.8445935398340225e-03</internalNodes>
          <leafValues>
            -8.9899808168411255e-02 4.5907029509544373e-01</leafValues></_>
        <_>
          <internalNodes>
            0 -1 284 -5.0406791269779205e-02</internalNodes>
          <leafValues>
            6.6425666213035583e-02 -7.5790047645568848e-01</leafValues></_>
        <_>
          <internalNodes>
            0 -1 248 -8.9671045541763306e-02</internalNodes>
          <leafValues>
            -3.7063470482826233e-01 1.3382492959499359e-01</leafValues></_></weakClassifiers></_>
    <!-- stage 4 -->
    <_>
      <maxWeakCount>8</maxWeakCount>
      <stageThreshold>-8.1046295166015625e-01</stageThreshold>
      <weakClassifiers>
        <_>
          <internalNodes>
            0 -1 275 -4.8680596053600311e-02</internalNodes>
          <leafValues>
            -6.9373548030853271e-01 5.0819671154022217e-01</leafValues></_>
        <_>
          <internalNodes>
            0 -1 219 -9.5331549644470215e-02</internalNodes>
          <leafValues>
            -9.8779064416885376e-01 1.0396212339401245e-01</leafValues></_>
        <_>
          <internalNodes>
            0 -1 362 2.9967527836561203e-02</internalNodes>
          <leafValues>
            -1.9405607879161835e-01 6.4123094081878662e-01</leafValues></_>
        <_>
          <internalNodes>
            0 -1 28 8.9280810207128525e-03</internalNodes>
          <leafValues>
            -1.3133211433887482e-01 5.8287900686264038e-01</leafValues></_>
        <_>
          <internalNodes>
            0 -1 310 -5.7284593582153320e-02</internalNodes>
          <leafValues>
            9.0668314695358276e-01 -1.2598471343517303e-01</leafValues></_>
        <_>
          <internalNodes>
            0 -1 203 5.7301145046949387e-02</internalNodes>
          <leafValues>
            -1.1699756234884262e-01 6.5659660100936890e-01</leafValues></_>
        <_>
          <internalNodes>
            0 -1 395 -3.4242797642946243e-02</internalNodes>
          <leafValues>
            5.5416077375411987e-01 -1.4852903783321381e-01</leafValues></_>
        <_>
          <internalNodes>
            0 -1 541 -1.9043480977416039e-02</internalNodes>
          <leafValues>
            4.9620994925498962e-01 -1.8348412215709686e-01</leafValues></_></weakClassifiers></_>
    <!-- stage 5 -->
    <_>
      <maxWeakCount>13</maxWeakCount>
      <stageThreshold>-1.0908758640289307e+00</stageThreshold>
      <weakClassifiers>
        <_>
          <internalNodes>
            0 -1 157 -8.2238328456878662e-01</internalNodes>
          <leafValues>
            -4.6997928619384766e-01 4.1649898886680603e-01</leafValues></_>
        <_>
          <internalNodes>
            0 -1 305 -6.9930829107761383e-02</internalNodes>
          <leafValues>
            7.8241032361984253e-01 -1.6906654834747314e-01</leafValues></_>
        <_>
          <internalNodes>
            0 -1 360 3.7519697099924088e-02</internalNodes>
          <leafValues>
            -2.5156825780868530e-01 6.1451971530914307e-01</leafValues></_>
        <_>
          <internalNodes>
            0 -1 590 7.7189020812511444e-03</internalNodes>
          <leafValues>
            -1.2375688552856445e-01 5.5245316028594971e-01</leafValues></_>
        <_>
          <internalNodes>
            0 -1 217 1.3542855158448219e-02</internalNodes>
          <leafValues>
            -2.4588507413864136e-01 3.6838150024414063e-01</leafValues></_>
        <_>
          <internalNodes>
            0 -1 34 -6.0918170213699341e-01</internalNodes>
          <leafValues>
            -1.0830832272768021e-01 7.6408624649047852e-01</leafValues></_>
        <_>
          <internalNodes>
            0 -1 529 7.3131043463945389e-03</internalNodes>
          <leafValues>
            -1.5270984172821045e-01 5.3105354309082031e-01</leafValues></_>
        <_>
          <internalNodes>
            0 -1 523 -2.1787073463201523e-02</internalNodes>
          <leafValues>
            5.6639850139617920e-01 -1.9663776457309723e-01</leafValues></_>
        <_>
          <internalNodes>
            0 -1 109 1.2429367750883102e-02</internalNodes>
          <leafValues>
            -1.3172633945941925e-01 4.3621301651000977e-01</leafValues></_>
        <_>
          <internalNodes>
            0 -1 322 -6.9752465933561325e-03</internalNodes>
          <leafValues>
            7.5976544618606567e-01 -1.2978720664978027e-01</leafValues></_>
        <_>
          <internalNodes>
            0 -1 25 6.8999398499727249e-03</internalNodes>
          <leafValues>
            -1.2582507729530334e-01 6.6090744733810425e-01</leafValues></_>
        <_>
          <internalNodes>
            0 -1 160 8.4263741970062256e-02</internalNodes>
          <leafValues>
            -1.2288775295019150e-01 7.2391015291213989e-01</leafValues></_>
        <_>
          <internalNodes>
            0 -1 340 -3.5655996762216091e-03</internalNodes>
          <leafValues>
            3.7422618269920349e-01 -2.3032552003860474e-01</leafValues></_></weakClassifiers></_>
    <!-- stage 6 -->
    <_>
      <maxWeakCount>18</maxWeakCount>
      <stageThreshold>-1.0103639364242554e+00</stageThreshold>
      <weakClassifiers>
        <_>
          <internalNodes>
            0 -1 385 -1.2887006998062134e-01</internalNodes>
          <leafValues>
            -1.4994096755981445e-01 8.0451124906539917e-01</leafValues></_>
        <_>
          <internalNodes>
            0 -1 166 -2.2301477193832397e-01</internalNodes>
          <leafValues>
            8.9614820480346680e-01 -7.9773992300033569e-02</leafValues></_>
        <_>
          <internalNodes>
            0 -1 323 -6.8887947127223015e-03</internalNodes>
          <leafValues>
            4.3704330921173096e-01 -1.8858228623867035e-01</leafValues></_>
        <_>
          <internalNodes>
            0 -1 321 2.8021264821290970e-02</internalNodes>
          <leafValues>
            -1.1094988137483597e-01 5.3475320339202881e-01</leafValues></_>
        <_>
          <internalNodes>
            0 -1 171 -2.8991140425205231e-02</internalNodes>
          <leafValues>
            4.0635576844215393e-01 -1.9483815133571625e-01</leafValues></_>
        <_>
          <internalNodes>
            0 -1 378 -1.3253705576062202e-02</internalNodes>
          <leafValues>
            -9.7263038158416748e-02 6.1387801170349121e-01</leafValues></_>
        <_>
          <internalNodes>
            0 -1 202 -3.1965859234333038e-02</internalNodes>
          <leafValues>
            4.8629197478294373e-01 -1.6897074878215790e-01</leafValues></_>
        <_>
          <internalNodes>
            0 -1 336 1.5790325123816729e-03</internalNodes>
          <leafValues>
            -2.2081084549427032e-01 3.1676816940307617e-01</leafValues></_>
        <_>
          <internalNodes>
            0 -1 520 1.2588468380272388e-03</internalNodes>
          <leafValues>
            -1.4860612154006958e-01 4.2594146728515625e-01</leafValues></_>
        <_>
          <internalNodes>
            0 -1 57 -3.7177228368818760e-03</internalNodes>
          <leafValues>
            5.3486895561218262e-01 -9.7638994455337524e-02</leafValues></_>
        <_>
          <internalNodes>
            0 -1 461 -7.5305239297449589e-03</internalNodes>
          <leafValues>
            4.7734725475311279e-01 -8.5706807672977448e-02</leafValues></_>
        <_>
          <internalNodes>
            0 -1 592 -1.3537351787090302e-01</internalNodes>
          <leafValues>
            -3.3519497513771057e-01 1.7036606371402740e-01</leafValues></_>
        <_>
          <internalNodes>
            0 -1 120 -7.1082385256886482e-03</internalNodes>
          <leafValues>
            5.6279838085174561e-01 -1.3995561003684998e-01</leafValues></_>
        <_>
          <internalNodes>
            0 -1 123 -2.0557813346385956e-02</internalNodes>
          <leafValues>
            6.3219392299652100e-01 -7.8153848648071289e-02</leafValues></_>
        <_>
          <internalNodes>
            0 -1 551 2.0846985280513763e-02</internalNodes>
          <leafValues>
            -1.5047650039196014e-01 4.5642298460006714e-01</leafValues></_>
        <_>
          <internalNodes>
            0 -1 558 -1.5710657462477684e-02</internalNodes>
          <leafValues>
            3.7819725275039673e-01 -1.7650453746318817e-01</leafValues></_>
        <_>
          <internalNodes>
            0 -1 415 -8.7041519582271576e-03</internalNodes>
          <leafValues>
            4.6934419870376587e-01 -1.5457446873188019e-01</leafValues></_>
        <_>
          <internalNodes>
            0 -1 445 1.1758329346776009e-03</internalNodes>
          <leafValues>
            -1.4503872394561768e-01 5.2163094282150269e-01</leafValues></_></weakClassifiers></_>
    <!-- stage 7 -->
    <_>
      <maxWeakCount>18</maxWeakCount>
      <stageThreshold>-1.1614392995834351e+00</stageThreshold>
      <weakClassifiers>
        <_>
          <internalNodes>
            0 -1 12 -5.5154210329055786e-01</internalNodes>
          <leafValues>
            -7.1818178892135620e-01 1.8157894909381866e-01</leafValues></_>
        <_>
          <internalNodes>
            0 -1 197 3.8743448257446289e-01</internalNodes>
          <leafValues>
            1.2055750936269760e-01 -7.9730045795440674e-01</leafValues></_>
        <_>
          <internalNodes>
            0 -1 588 -1.7498120665550232e-02</internalNodes>
          <leafValues>
            5.8067935705184937e-01 -1.7598648369312286e-01</leafValues></_>
        <_>
          <internalNodes>
            0 -1 339 -9.4863973557949066e-02</internalNodes>
          <leafValues>
            7.9722201824188232e-01 -8.5672363638877869e-02</leafValues></_>
        <_>
          <internalNodes>
            0 -1 388 4.2101240251213312e-04</internalNodes>
          <leafValues>
            -2.4304696917533875e-01 4.4081452488899231e-01</leafValues></_>
        <_>
          <internalNodes>
            0 -1 368 -1.0723920539021492e-02</internalNodes>
          <leafValues>
            7.3787748813629150e-01 -5.8586504310369492e-02</leafValues></_>
        <_>
          <internalNodes>
            0 -1 359 -4.4631157070398331e-03</internalNodes>
          <leafValues>
            4.2578878998756409e-01 -1.5079945325851440e-01</leafValues></_>
        <_>
          <internalNodes>
            0 -1 584 -1.2752804905176163e-02</internalNodes>
          <leafValues>
            -8.1676220893859863e-01 1.4552634954452515e-01</leafValues></_>
        <_>
          <internalNodes>
            0 -1 446 -5.9647415764629841e-04</internalNodes>
          <leafValues>
            4.9151721596717834e-01 -1.9307540357112885e-01</leafValues></_>
        <_>
          <internalNodes>
            0 -1 474 -1.2027024291455746e-02</internalNodes>
          <leafValues>
            6.8193823099136353e-01 -5.0528060644865036e-02</leafValues></_>
        <_>
          <internalNodes>
            0 -1 386 -2.8019729070365429e-03</internalNodes>
          <leafValues>
            -1.0551226884126663e-01 9.7222477197647095e-01</leafValues></_>
        <_>
          <internalNodes>
            0 -1 512 -1.8281647935509682e-03</internalNodes>
          <leafValues>
            3.9308038353919983e-01 -1.3210654258728027e-01</leafValues></_>
        <_>
          <internalNodes>
            0 -1 93 -3.0362535268068314e-02</internalNodes>
          <leafValues>
            7.1830826997756958e-01 -1.1072476208209991e-01</leafValues></_>
        <_>
          <internalNodes>
            0 -1 26 -1.5741648152470589e-02</internalNodes>
          <leafValues>
            5.1533210277557373e-01 -1.2981273233890533e-01</leafValues></_>
        <_>
          <internalNodes>
            0 -1 491 1.1829795548692346e-03</internalNodes>
          <leafValues>
            -1.6131672263145447e-01 3.6018040776252747e-01</leafValues></_>
        <_>
          <internalNodes>
            0 -1 225 -5.3026014938950539e-03</internalNodes>
          <leafValues>
            3.3767864108085632e-01 -1.8960091471672058e-01</leafValues></_>
        <_>
          <internalNodes>
            0 -1 579 1.1768187396228313e-03</internalNodes>
          <leafValues>
            -1.5688747167587280e-01 4.0747642517089844e-01</leafValues></_>
        <_>
          <internalNodes>
            0 -1 414 3.5558033268898726e-03</internalNodes>
          <leafValues>
            -1.8694262206554413e-01 3.8419184088706970e-01</leafValues></_></weakClassifiers></_>
    <!-- stage 8 -->
    <_>
      <maxWeakCount>25</maxWeakCount>
      <stageThreshold>-9.8063325881958008e-01</stageThreshold>
      <weakClassifiers>
        <_>
          <internalNodes>
            0 -1 283 -1.1317859590053558e-01</internalNodes>
          <leafValues>
            8.9247310161590576e-01 -1.1612176150083542e-01</leafValues></_>
        <_>
          <internalNodes>
            0 -1 201 1.5891814231872559e-01</internalNodes>
          <leafValues>
            -1.4087742567062378e-01 5.7307779788970947e-01</leafValues></_>
        <_>
          <internalNodes>
            0 -1 251 -2.5312781333923340e-02</internalNodes>
          <leafValues>
            1.1227057874202728e-01 -6.4192771911621094e-01</leafValues></_>
        <_>
          <internalNodes>
            0 -1 47 -5.3539825603365898e-04</internalNodes>
          <leafValues>
            -2.6949089765548706e-01 2.4308003485202789e-01</leafValues></_>
        <_>
          <internalNodes>
            0 -1 598 -4.7026686370372772e-03</internalNodes>
          <leafValues>
            3.5706484317779541e-01 -2.0531931519508362e-01</leafValues></_>
        <_>
          <internalNodes>
            0 -1 504 3.7014510598964989e-04</internalNodes>
          <leafValues>
            1.3102598488330841e-01 -3.6820352077484131e-01</leafValues></_>
        <_>
          <internalNodes>
            0 -1 570 -9.8448712378740311e-04</internalNodes>
          <leafValues>
            1.2688288092613220e-01 -5.5274945497512817e-01</leafValues></_>
        <_>
          <internalNodes>
            0 -1 382 -1.2629177421331406e-02</internalNodes>
          <leafValues>
            -1.1422888934612274e-01 6.5632367134094238e-01</leafValues></_>
        <_>
          <internalNodes>
            0 -1 397 2.7216318994760513e-04</internalNodes>
          <leafValues>
            1.6557347774505615e-01 -4.1970172524452209e-01</leafValues></_>
        <_>
          <internalNodes>
            0 -1 482 -5.3561845561489463e-04</internalNodes>
          <leafValues>
            2.3962186649441719e-02 -8.4849792718887329e-01</leafValues></_>
        <_>
          <internalNodes>
            0 -1 314 -1.7479569651186466e-03</internalNodes>
          <leafValues>
            3.8433778285980225e-01 -1.3752177357673645e-01</leafValues></_>
        <_>
          <internalNodes>
            0 -1 46 1.9346772460266948e-03</internalNodes>
          <leafValues>
            1.5386132895946503e-01 -3.5423257946968079e-01</leafValues></_>
        <_>
          <internalNodes>
            0 -1 466 9.8859090358018875e-03</internalNodes>
          <leafValues>
            -9.7319900989532471e-02 5.5209273099899292e-01</leafValues></_>
        <_>
          <internalNodes>
            0 -1 206 1.2341406196355820e-02</internalNodes>
          <leafValues>
            -1.7607237398624420e-01 3.1507554650306702e-01</leafValues></_>
        <_>
          <internalNodes>
            0 -1 39 -2.0212570205330849e-02</internalNodes>
          <leafValues>
            3.7263390421867371e-01 -1.2884849309921265e-01</leafValues></_>
        <_>
          <internalNodes>
            0 -1 198 -1.5631999820470810e-02</internalNodes>
          <leafValues>
            6.1570179462432861e-01 -6.8048462271690369e-02</leafValues></_>
        <_>
          <internalNodes>
            0 -1 107 6.2044961377978325e-03</internalNodes>
          <leafValues>
            -7.9395204782485962e-02 5.5142331123352051e-01</leafValues></_>
        <_>
          <internalNodes>
            0 -1 457 1.8856421113014221e-02</internalNodes>
          <leafValues>
            -1.2480506300926208e-01 3.7630170583724976e-01</leafValues></_>
        <_>
          <internalNodes>
            0 -1 610 -1.9406634964980185e-04</internalNodes>
          <leafValues>
            -3.5509905219078064e-01 1.3892012834548950e-01</leafValues></_>
        <_>
          <internalNodes>
            0 -1 573 1.3679504394531250e-02</internalNodes>
          <leafValues>
            -1.1697090417146683e-01 4.2932668328285217e-01</leafValues></_>
        <_>
          <internalNodes>
            0 -1 418 -5.1767528057098389e-03</internalNodes>
          <leafValues>
            8.5043400526046753e-02 -6.1200922727584839e-01</leafValues></_>
        <_>
          <internalNodes>
            0 -1 403 3.7542241625487804e-04</internalNodes>
          <leafValues>
            1.4139127731323242e-01 -3.4826007485389709e-01</leafValues></_>
        <_>
          <internalNodes>
            0 -1 328 8.5969470092095435e-05</internalNodes>
          <leafValues>
            1.6826772689819336e-01 -3.0985841155052185e-01</leafValues></_>
        <_>
          <internalNodes>
            0 -1 99 1.8532943795435131e-04</internalNodes>
          <leafValues>
            1.2996129691600800e-01 -3.6710050702095032e-01</leafValues></_>
        <_>
          <internalNodes>
            0 -1 593 -3.4762090072035789e-03</internalNodes>
          <leafValues>
            6.0513311624526978e-01 -8.8753923773765564e-02</leafValues></_></weakClassifiers></_>
    <!-- stage 9 -->
    <_>
      <maxWeakCount>21</maxWeakCount>
      <stageThreshold>-9.1055810451507568e-01</stageThreshold>
      <weakClassifiers>
        <_>
          <internalNodes>
            0 -1 444 -1.1230045557022095e-01</internalNodes>
          <leafValues>
            -3.8765433430671692e-01 2.3826086521148682e-01</leafValues></_>
        <_>
          <internalNodes>
            0 -1 346 1.6055009327828884e-03</internalNodes>
          <leafValues>
            -8.3480559289455414e-02 8.3085536956787109e-01</leafValues></_>
        <_>
          <internalNodes>
            0 -1 315 -1.0676545789465308e-03</internalNodes>
          <leafValues>
            4.6503618359565735e-01 -1.5681810677051544e-01</leafValues></_>
        <_>
          <internalNodes>
            0 -1 265 5.4322867654263973e-03</internalNodes>
          <leafValues>
            -8.6920686066150665e-02 6.4634090662002563e-01</leafValues></_>
        <_>
          <internalNodes>
            0 -1 90 -3.3186413347721100e-03</internalNodes>
          <leafValues>
            6.6602861881256104e-01 -8.3551213145256042e-02</leafValues></_>
        <_>
          <internalNodes>
            0 -1 485 -3.0063213780522346e-03</internalNodes>
          <leafValues>
            4.3392848968505859e-01 -1.1548820883035660e-01</leafValues></_>
        <_>
          <internalNodes>
            0 -1 598 -4.4648293405771255e-03</internalNodes>
          <leafValues>
            4.0155470371246338e-01 -1.4169362187385559e-01</leafValues></_>
        <_>
          <internalNodes>
            0 -1 487 1.0233328212052584e-03</internalNodes>
          <leafValues>
            -6.1858318746089935e-02 6.5519535541534424e-01</leafValues></_>
        <_>
          <internalNodes>
            0 -1 489 -4.8408389091491699e-02</internalNodes>
          <leafValues>
            6.7414772510528564e-01 -8.1727743148803711e-02</leafValues></_>
        <_>
          <internalNodes>
            0 -1 110 -1.3101864606142044e-03</internalNodes>
          <leafValues>
            6.2802135944366455e-01 -7.5892448425292969e-02</leafValues></_>
        <_>
          <internalNodes>
            0 -1 250 2.9415315948426723e-03</internalNodes>
          <leafValues>
            -1.6367441415786743e-01 3.0020961165428162e-01</leafValues></_>
        <_>
          <internalNodes>
            0 -1 253 -2.1681641228497028e-03</internalNodes>
          <leafValues>
            5.3614741563796997e-01 -7.5348637998104095e-02</leafValues></_>
        <_>
          <internalNodes>
            0 -1 3 -4.0601436048746109e-03</internalNodes>
          <leafValues>
            -3.9248725771903992e-01 1.4239045977592468e-01</leafValues></_>
        <_>
          <internalNodes>
            0 -1 32 4.0571115911006927e-02</internalNodes>
          <leafValues>
            -1.2198394536972046e-01 5.1239091157913208e-01</leafValues></_>
        <_>
          <internalNodes>
            0 -1 289 -9.4875984359532595e-04</internalNodes>
          <leafValues>
            7.5456124544143677e-01 -4.7653678804636002e-02</leafValues></_>
        <_>
          <internalNodes>
            0 -1 488 6.6486992873251438e-03</internalNodes>
          <leafValues>
            -4.9734242260456085e-02 8.2338750362396240e-01</leafValues></_>
        <_>
          <internalNodes>
            0 -1 516 -8.5068032145500183e-02</internalNodes>
          <leafValues>
            -5.1159334182739258e-01 1.1127578467130661e-01</leafValues></_>
        <_>
          <internalNodes>
            0 -1 560 -3.0861734412610531e-03</internalNodes>
          <leafValues>
            4.2505735158920288e-01 -1.5747842192649841e-01</leafValues></_>
        <_>
          <internalNodes>
            0 -1 199 -4.7366876155138016e-02</internalNodes>
          <leafValues>
            1.1495236307382584e-01 -6.4109247922897339e-01</leafValues></_>
        <_>
          <internalNodes>
            0 -1 94 1.6938630142249167e-04</internalNodes>
          <leafValues>
            1.8955829739570618e-01 -2.5665903091430664e-01</leafValues></_>
        <_>
          <internalNodes>
            0 -1 503 4.1410811245441437e-02</internalNodes>
          <leafValues>
            6.0349743813276291e-02 -9.0618610382080078e-01</leafValues></_></weakClassifiers></_>
    <!-- stage 10 -->
    <_>
      <maxWeakCount>29</maxWeakCount>
      <stageThreshold>-1.0092463493347168e+00</stageThreshold>
      <weakClassifiers>
        <_>
          <internalNodes>
            0 -1 271 -1.9300055503845215e-01</internalNodes>
          <leafValues>
            7.0068025588989258e-01 -1.4765906333923340e-01</leafValues></_>
        <_>
          <internalNodes>
            0 -1 304 1.4449650049209595e-01</internalNodes>
          <leafValues>
            -7.7486261725425720e-02 7.3264431953430176e-01</leafValues></_>
        <_>
          <internalNodes>
            0 -1 167 3.6493889987468719e-02</internalNodes>
          <leafValues>
            -9.9643915891647339e-02 4.9856606125831604e-01</leafValues></_>
        <_>
          <internalNodes>
            0 -1 409 4.2507771402597427e-02</internalNodes>
          <leafValues>
            -1.4015877246856689e-01 4.9104008078575134e-01</leafValues></_>
        <_>
          <internalNodes>
            0 -1 369 -4.9267064779996872e-02</internalNodes>
          <leafValues>
            -1.9019164144992828e-01 3.1926548480987549e-01</leafValues></_>
        <_>
          <internalNodes>
            0 -1 500 -1.7990838387049735e-04</internalNodes>
          <leafValues>
            -2.8038638830184937e-01 1.7968632280826569e-01</leafValues></_>
        <_>
          <internalNodes>
            0 -1 302 8.0365948379039764e-03</internalNodes>
          <leafValues>
            -1.1337747424840927e-01 4.4148647785186768e-01</leafValues></_>
        <_>
          <internalNodes>
            0 -1 207 -5.1834762096405029e-02</internalNodes>
          <leafValues>
            5.2387839555740356e-01 -6.9513395428657532e-02</leafValues></_>
        <_>
          <internalNodes>
            0 -1 607 4.3650064617395401e-03</internalNodes>
          <leafValues>
            -1.0556510835886002e-01 4.1248929500579834e-01</leafValues></_>
        <_>
          <internalNodes>
            0 -1 220 2.4765492416918278e-03</internalNodes>
          <leafValues>
            -9.4242133200168610e-02 4.5222538709640503e-01</leafValues></_>
        <_>
          <internalNodes>
            0 -1 74 -4.8742787912487984e-03</internalNodes>
          <leafValues>
            -4.5335891842842102e-01 1.3514061272144318e-01</leafValues></_>
        <_>
          <internalNodes>
            0 -1 439 -8.4352940320968628e-03</internalNodes>
          <leafValues>
            4.4246292114257813e-01 -1.3167816400527954e-01</leafValues></_>
        <_>
          <internalNodes>
            0 -1 98 7.2948518209159374e-04</internalNodes>
          <leafValues>
            1.2838801741600037e-01 -5.2703875303268433e-01</leafValues></_>
        <_>
          <internalNodes>
            0 -1 4 6.3682142645120621e-03</internalNodes>
          <leafValues>
            -1.4904962480068207e-01 3.4695732593536377e-01</leafValues></_>
        <_>
          <internalNodes>
            0 -1 48 -6.9878256181254983e-04</internalNodes>
          <leafValues>
            -3.4610763192176819e-01 1.4439769089221954e-01</leafValues></_>
        <_>
          <internalNodes>
            0 -1 254 1.9269589334726334e-02</internalNodes>
          <leafValues>
            -9.9002942442893982e-02 5.7779550552368164e-01</leafValues></_>
        <_>
          <internalNodes>
            0 -1 563 2.2507984191179276e-02</internalNodes>
          <leafValues>
            -9.6167206764221191e-02 4.4320872426033020e-01</leafValues></_>
        <_>
          <internalNodes>
            0 -1 556 -1.2067757546901703e-02</internalNodes>
          <leafValues>
            3.6260965466499329e-01 -1.5050537884235382e-01</leafValues></_>
        <_>
          <internalNodes>
            0 -1 209 -4.0889263153076172e-01</internalNodes>
          <leafValues>
            -8.4617596864700317e-01 7.7641457319259644e-02</leafValues></_>
        <_>
          <internalNodes>
            0 -1 240 -1.9908126443624496e-02</internalNodes>
          <leafValues>
            -6.7535573244094849e-01 5.8485098183155060e-02</leafValues></_>
        <_>
          <internalNodes>
            0 -1 63 8.1301317550241947e-05</internalNodes>
          <leafValues>
            2.2160471975803375e-01 -2.6782092452049255e-01</leafValues></_>
        <_>
          <internalNodes>
            0 -1 455 -3.7247344851493835e-02</internalNodes>
          <leafValues>
            7.4781900644302368e-01 -5.5872257798910141e-02</leafValues></_>
        <_>
          <internalNodes>
            0 -1 347 -9.1276941820979118e-03</internalNodes>
          <leafValues>
            -8.4987956285476685e-01 6.6775344312191010e-02</leafValues></_>
        <_>
          <internalNodes>
            0 -1 316 -3.0131805688142776e-03</internalNodes>
          <leafValues>
            2.9579690098762512e-01 -1.6673707962036133e-01</leafValues></_>
        <_>
          <internalNodes>
            0 -1 267 1.8935988191515207e-03</internalNodes>
          <leafValues>
            -1.3605076074600220e-01 3.6208295822143555e-01</leafValues></_>
        <_>
          <internalNodes>
            0 -1 363 -2.5108071044087410e-02</internalNodes>
          <leafValues>
            7.5206279754638672e-01 -5.8973331004381180e-02</leafValues></_>
        <_>
          <internalNodes>
            0 -1 567 2.2102182265371084e-04</internalNodes>
          <leafValues>
            1.2149301916360855e-01 -4.0055486559867859e-01</leafValues></_>
        <_>
          <internalNodes>
            0 -1 85 1.1557767167687416e-02</internalNodes>
          <leafValues>
            -1.5597178041934967e-01 3.8636380434036255e-01</leafValues></_>
        <_>
          <internalNodes>
            0 -1 577 -4.2913239449262619e-03</internalNodes>
          <leafValues>
            -6.5540236234664917e-01 6.8837016820907593e-02</leafValues></_></weakClassifiers></_>
    <!-- stage 11 -->
    <_>
      <maxWeakCount>30</maxWeakCount>
      <stageThreshold>-9.0881085395812988e-01</stageThreshold>
      <weakClassifiers>
        <_>
          <internalNodes>
            0 -1 53 -2.8772234916687012e-01</internalNodes>
          <leafValues>
            -1.3116726279258728e-01 5.9731543064117432e-01</leafValues></_>
        <_>
          <internalNodes>
            0 -1 305 -1.1033220589160919e-01</internalNodes>
          <leafValues>
            7.0061278343200684e-01 -7.5801104307174683e-02</leafValues></_>
        <_>
          <internalNodes>
            0 -1 481 7.3331266641616821e-02</internalNodes>
          <leafValues>
            -1.8878403306007385e-01 3.7003627419471741e-01</leafValues></_>
        <_>
          <internalNodes>
            0 -1 622 1.0134066687896848e-03</internalNodes>
          <leafValues>
            1.4901766180992126e-01 -4.3567088246345520e-01</leafValues></_>
        <_>
          <internalNodes>
            0 -1 329 5.1921920385211706e-04</internalNodes>
          <leafValues>
            1.1162974685430527e-01 -4.1079831123352051e-01</leafValues></_>
        <_>
          <internalNodes>
            0 -1 9 3.2976597547531128e-02</internalNodes>
          <leafValues>
            -8.7803654372692108e-02 4.9768513441085815e-01</leafValues></_>
        <_>
          <internalNodes>
            0 -1 42 4.9595504999160767e-02</internalNodes>
          <leafValues>
            -1.0335700213909149e-01 4.8477625846862793e-01</leafValues></_>
        <_>
          <internalNodes>
            0 -1 374 1.7061490565538406e-02</internalNodes>
          <leafValues>
            -1.5688396990299225e-01 2.9595434665679932e-01</leafValues></_>
        <_>
          <internalNodes>
            0 -1 538 -3.3984955400228500e-02</internalNodes>
          <leafValues>
            3.3314236998558044e-01 -1.1269456148147583e-01</leafValues></_>
        <_>
          <internalNodes>
            0 -1 161 1.7459993064403534e-01</internalNodes>
          <leafValues>
            -1.1198688298463821e-01 4.5273610949516296e-01</leafValues></_>
        <_>
          <internalNodes>
            0 -1 297 -2.2761206491850317e-04</internalNodes>
          <leafValues>
            -2.9583343863487244e-01 1.7094689607620239e-01</leafValues></_>
        <_>
          <internalNodes>
            0 -1 24 6.1310185119509697e-03</internalNodes>
          <leafValues>
            -1.1202874034643173e-01 5.1345938444137573e-01</leafValues></_>
        <_>
          <internalNodes>
            0 -1 67 5.0924241077154875e-04</internalNodes>
          <leafValues>
            1.2177044153213501e-01 -5.1548957824707031e-01</leafValues></_>
        <_>
          <internalNodes>
            0 -1 429 -9.5633591990917921e-04</internalNodes>
          <leafValues>
            2.5864046812057495e-01 -1.9161117076873779e-01</leafValues></_>
        <_>
          <internalNodes>
            0 -1 616 2.6883650571107864e-03</internalNodes>
          <leafValues>
            -5.1329325884580612e-02 6.1416822671890259e-01</leafValues></_>
        <_>
          <internalNodes>
            0 -1 475 -1.7114228103309870e-04</internalNodes>
          <leafValues>
            -3.8406634330749512e-01 1.1438453942537308e-01</leafValues></_>
        <_>
          <internalNodes>
            0 -1 575 -4.5668836683034897e-03</internalNodes>
          <leafValues>
            3.9888972043991089e-01 -1.0576517134904861e-01</leafValues></_>
        <_>
          <internalNodes>
            0 -1 380 3.1094276346266270e-03</internalNodes>
          <leafValues>
            6.7815691232681274e-02 -6.9284850358963013e-01</leafValues></_>
        <_>
          <internalNodes>
            0 -1 31 1.6989024356007576e-02</internalNodes>
          <leafValues>
            -1.2969939410686493e-01 3.7981992959976196e-01</leafValues></_>
        <_>
          <internalNodes>
            0 -1 443 -9.2049464583396912e-03</internalNodes>
          <leafValues>
            5.1168066263198853e-01 -7.2298176586627960e-02</leafValues></_>
        <_>
          <internalNodes>
            0 -1 470 2.2714780643582344e-03</internalNodes>
          <leafValues>
            -1.2292888015508652e-01 3.8490366935729980e-01</leafValues></_>
        <_>
          <internalNodes>
            0 -1 58 -4.6608429402112961e-03</internalNodes>
          <leafValues>
            -5.5633485317230225e-01 8.2115314900875092e-02</leafValues></_>
        <_>
          <internalNodes>
            0 -1 54 1.6911193961277604e-04</internalNodes>
          <leafValues>
            1.3441836833953857e-01 -3.2037079334259033e-01</leafValues></_>
        <_>
          <internalNodes>
            0 -1 625 3.1494212453253567e-04</internalNodes>
          <leafValues>
            1.1025918275117874e-01 -3.7504357099533081e-01</leafValues></_>
        <_>
          <internalNodes>
            0 -1 465 1.4479786157608032e-02</internalNodes>
          <leafValues>
            -6.3853241503238678e-02 6.5132862329483032e-01</leafValues></_>
        <_>
          <internalNodes>
            0 -1 522 -1.6696624457836151e-02</internalNodes>
          <leafValues>
            2.9495763778686523e-01 -1.3582780957221985e-01</leafValues></_>
        <_>
          <internalNodes>
            0 -1 396 2.4689540732651949e-03</internalNodes>
          <leafValues>
            -1.7372593283653259e-01 2.8282672166824341e-01</leafValues></_>
        <_>
          <internalNodes>
            0 -1 547 -4.7917274059727788e-04</internalNodes>
          <leafValues>
            -2.9860115051269531e-01 1.4116923511028290e-01</leafValues></_>
        <_>
          <internalNodes>
            0 -1 235 2.0825979113578796e-01</internalNodes>
          <leafValues>
            6.6714718937873840e-02 -6.6134828329086304e-01</leafValues></_>
        <_>
          <internalNodes>
            0 -1 342 -2.2041250485926867e-04</internalNodes>
          <leafValues>
            -3.2985576987266541e-01 1.1773639917373657e-01</leafValues></_></weakClassifiers></_>
    <!-- stage 12 -->
    <_>
      <maxWeakCount>30</maxWeakCount>
      <stageThreshold>-8.6395770311355591e-01</stageThreshold>
      <weakClassifiers>
        <_>
          <internalNodes>
            0 -1 231 3.8317471742630005e-02</internalNodes>
          <leafValues>
            -1.5039578080177307e-01 4.2342340946197510e-01</leafValues></_>
        <_>
          <internalNodes>
            0 -1 243 1.8133586645126343e-01</internalNodes>
          <leafValues>
            -7.1431249380111694e-02 7.0586985349655151e-01</leafValues></_>
        <_>
          <internalNodes>
            0 -1 401 -1.7445610836148262e-02</internalNodes>
          <leafValues>
            -1.1455325037240982e-01 5.6903517246246338e-01</leafValues></_>
        <_>
          <internalNodes>
            0 -1 366 4.0387343615293503e-02</internalNodes>
          <leafValues>
            -1.0817877948284149e-01 4.3179032206535339e-01</leafValues></_>
        <_>
          <internalNodes>
            0 -1 236 7.0743181277066469e-04</internalNodes>
          <leafValues>
            -8.4215797483921051e-02 5.0074189901351929e-01</leafValues></_>
        <_>
          <internalNodes>
            0 -1 569 1.5424503362737596e-04</internalNodes>
          <leafValues>
            -1.5683135390281677e-01 2.6680505275726318e-01</leafValues></_>
        <_>
          <internalNodes>
            0 -1 300 -5.9886872768402100e-03</internalNodes>
          <leafValues>
            3.1030455231666565e-01 -1.5447483956813812e-01</leafValues></_>
        <_>
          <internalNodes>
            0 -1 371 -3.8582212291657925e-03</internalNodes>
          <leafValues>
            4.1319528222084045e-01 -9.4939656555652618e-02</leafValues></_>
        <_>
          <internalNodes>
            0 -1 578 -6.7171439528465271e-02</internalNodes>
          <leafValues>
            -7.2115838527679443e-02 4.9320548772811890e-01</leafValues></_>
        <_>
          <internalNodes>
            0 -1 545 -2.3665700573474169e-03</internalNodes>
          <leafValues>
            5.9637320041656494e-01 -7.5711220502853394e-02</leafValues></_>
        <_>
          <internalNodes>
            0 -1 501 -3.6225428630132228e-05</internalNodes>
          <leafValues>
            -1.9192604720592499e-01 1.9913023710250854e-01</leafValues></_>
        <_>
          <internalNodes>
            0 -1 163 5.4219596087932587e-02</internalNodes>
          <leafValues>
            -8.0635175108909607e-02 3.9178931713104248e-01</leafValues></_>
        <_>
          <internalNodes>
            0 -1 13 3.9026602171361446e-03</internalNodes>
          <leafValues>
            -6.5535753965377808e-02 8.1856215000152588e-01</leafValues></_>
        <_>
          <internalNodes>
            0 -1 490 -6.0905411373823881e-04</internalNodes>
          <leafValues>
            4.3793854117393494e-01 -7.8459307551383972e-02</leafValues></_>
        <_>
          <internalNodes>
            0 -1 184 6.5345265902578831e-03</internalNodes>
          <leafValues>
            -1.3942645490169525e-01 2.9297950863838196e-01</leafValues></_>
        <_>
          <internalNodes>
            0 -1 16 2.2254646755754948e-03</internalNodes>
          <leafValues>
            1.6336983442306519e-01 -2.6202920079231262e-01</leafValues></_>
        <_>
          <internalNodes>
            0 -1 135 3.8303798437118530e-01</internalNodes>
          <leafValues>
            6.3894987106323242e-02 -7.2828447818756104e-01</leafValues></_>
        <_>
          <internalNodes>
            0 -1 596 6.0993712395429611e-03</internalNodes>
          <leafValues>
            -7.5948782265186310e-02 4.9264246225357056e-01</leafValues></_>
        <_>
          <internalNodes>
            0 -1 384 -1.4817073242738843e-03</internalNodes>
          <leafValues>
            3.1062239408493042e-01 -1.2839286029338837e-01</leafValues></_>
        <_>
          <internalNodes>
            0 -1 7 -1.5802256762981415e-02</internalNodes>
          <leafValues>
            -9.0577937662601471e-02 5.0693935155868530e-01</leafValues></_>
        <_>
          <internalNodes>
            0 -1 264 4.1106543503701687e-03</internalNodes>
          <leafValues>
            -9.6620574593544006e-02 4.1510447859764099e-01</leafValues></_>
        <_>
          <internalNodes>
            0 -1 288 1.2979709543287754e-02</internalNodes>
          <leafValues>
            5.8812439441680908e-02 -8.1049716472625732e-01</leafValues></_>
        <_>
          <internalNodes>
            0 -1 445 2.2534229792654514e-03</internalNodes>
          <leafValues>
            -1.0404055565595627e-01 4.4796675443649292e-01</leafValues></_>
        <_>
          <internalNodes>
            0 -1 142 -9.8718721419572830e-03</internalNodes>
          <leafValues>
            -3.4228369593620300e-01 1.2970115244388580e-01</leafValues></_>
        <_>
          <internalNodes>
            0 -1 121 -1.4363567531108856e-01</internalNodes>
          <leafValues>
            5.2846592664718628e-01 -8.6871430277824402e-02</leafValues></_>
        <_>
          <internalNodes>
            0 -1 301 2.9094927012920380e-03</internalNodes>
          <leafValues>
            -1.2105854600667953e-01 3.8583657145500183e-01</leafValues></_>
        <_>
          <internalNodes>
            0 -1 625 1.6644416609779000e-04</internalNodes>
          <leafValues>
            1.2699329853057861e-01 -3.1498631834983826e-01</leafValues></_>
        <_>
          <internalNodes>
            0 -1 119 -6.3087940216064453e-03</internalNodes>
          <leafValues>
            7.7181333303451538e-01 -4.8376072198152542e-02</leafValues></_>
        <_>
          <internalNodes>
            0 -1 394 1.0633179917931557e-03</internalNodes>
          <leafValues>
            -1.3138909637928009e-01 3.0545067787170410e-01</leafValues></_>
        <_>
          <internalNodes>
            0 -1 398 -1.7386925173923373e-04</internalNodes>
          <leafValues>
            -3.2660827040672302e-01 1.2408903986215591e-01</leafValues></_></weakClassifiers></_>
    <!-- stage 13 -->
    <_>
      <maxWeakCount>23</maxWeakCount>
      <stageThreshold>-7.9295468330383301e-01</stageThreshold>
      <weakClassifiers>
        <_>
          <internalNodes>
            0 -1 353 -4.2944514751434326e-01</internalNodes>
          <leafValues>
            6.2436550855636597e-01 -1.8263091146945953e-01</leafValues></_>
        <_>
          <internalNodes>
            0 -1 542 -3.1517505645751953e-02</internalNodes>
          <leafValues>
            4.0335080027580261e-01 -1.8412637710571289e-01</leafValues></_>
        <_>
          <internalNodes>
            0 -1 497 -2.1097629796713591e-03</internalNodes>
          <leafValues>
            -7.5969569385051727e-02 9.6916782855987549e-01</leafValues></_>
        <_>
          <internalNodes>
            0 -1 140 -1.0233295708894730e-01</internalNodes>
          <leafValues>
            1.4249716699123383e-01 -3.9521211385726929e-01</leafValues></_>
        <_>
          <internalNodes>
            0 -1 191 8.4757946431636810e-02</internalNodes>
          <leafValues>
            -1.1875644326210022e-01 4.7256559133529663e-01</leafValues></_>
        <_>
          <internalNodes>
            0 -1 87 -1.6194531321525574e-01</internalNodes>
          <leafValues>
            5.2548253536224365e-01 -1.0085120797157288e-01</leafValues></_>
        <_>
          <internalNodes>
            0 -1 452 -8.4999948740005493e-05</internalNodes>
          <leafValues>
            -3.2856348156929016e-01 2.0145848393440247e-01</leafValues></_>
        <_>
          <internalNodes>
            0 -1 33 2.8924880549311638e-02</internalNodes>
          <leafValues>
            -2.0920717716217041e-01 2.8586903214454651e-01</leafValues></_>
        <_>
          <internalNodes>
            0 -1 56 2.7031655190512538e-04</internalNodes>
          <leafValues>
            1.6854940354824066e-01 -3.4421229362487793e-01</leafValues></_>
        <_>
          <internalNodes>
            0 -1 532 1.1087349615991116e-02</internalNodes>
          <leafValues>
            6.9016881287097931e-02 -7.4328231811523438e-01</leafValues></_>
        <_>
          <internalNodes>
            0 -1 124 -4.4248071499168873e-03</internalNodes>
          <leafValues>
            1.0964152961969376e-01 -4.5278170704841614e-01</leafValues></_>
        <_>
          <internalNodes>
            0 -1 133 -3.0935978889465332e-01</internalNodes>
          <leafValues>
            8.7464314699172974e-01 -7.4214145541191101e-02</leafValues></_>
        <_>
          <internalNodes>
            0 -1 145 -3.4093372523784637e-02</internalNodes>
          <leafValues>
            4.6639335155487061e-01 -8.6779832839965820e-02</leafValues></_>
        <_>
          <internalNodes>
            0 -1 518 7.6575946877710521e-05</internalNodes>
          <leafValues>
            2.0753271877765656e-01 -2.7967482805252075e-01</leafValues></_>
        <_>
          <internalNodes>
            0 -1 462 4.0909042581915855e-03</internalNodes>
          <leafValues>
            9.8693370819091797e-02 -4.5589691400527954e-01</leafValues></_>
        <_>
          <internalNodes>
            0 -1 521 -3.8895267061889172e-04</internalNodes>
          <leafValues>
            -4.2176213860511780e-01 1.0947629809379578e-01</leafValues></_>
        <_>
          <internalNodes>
            0 -1 591 -5.6318640708923340e-03</internalNodes>
          <leafValues>
            -6.0201221704483032e-01 8.5774771869182587e-02</leafValues></_>
        <_>
          <internalNodes>
            0 -1 291 6.2100261857267469e-05</internalNodes>
          <leafValues>
            1.7234484851360321e-01 -3.0332732200622559e-01</leafValues></_>
        <_>
          <internalNodes>
            0 -1 535 -9.6611795015633106e-04</internalNodes>
          <leafValues>
            3.2038968801498413e-01 -1.6069139540195465e-01</leafValues></_>
        <_>
          <internalNodes>
            0 -1 164 3.6557629704475403e-02</internalNodes>
          <leafValues>
            -1.1207631230354309e-01 4.7748756408691406e-01</leafValues></_>
        <_>
          <internalNodes>
            0 -1 196 -1.9575033336877823e-02</internalNodes>
          <leafValues>
            3.8274490833282471e-01 -1.3483482599258423e-01</leafValues></_>
        <_>
          <internalNodes>
            0 -1 181 -2.9779197648167610e-03</internalNodes>
          <leafValues>
            1.8414649367332458e-01 -2.8964897990226746e-01</leafValues></_>
        <_>
          <internalNodes>
            0 -1 617 -1.9366148626431823e-03</internalNodes>
          <leafValues>
            -7.9164803028106689e-02 8.0340963602066040e-01</leafValues></_></weakClassifiers></_>
    <!-- stage 14 -->
    <_>
      <maxWeakCount>28</maxWeakCount>
      <stageThreshold>-7.1448785066604614e-01</stageThreshold>
      <weakClassifiers>
        <_>
          <internalNodes>
            0 -1 129 -3.5198932886123657e-01</internalNodes>
          <leafValues>
            5.9322035312652588e-01 -1.0440835356712341e-01</leafValues></_>
        <_>
          <internalNodes>
            0 -1 406 -2.0203255116939545e-03</internalNodes>
          <leafValues>
            -4.1451118886470795e-02 9.6206778287887573e-01</leafValues></_>
        <_>
          <internalNodes>
            0 -1 137 -1.3791830837726593e-01</internalNodes>
          <leafValues>
            -1. 3.8969255983829498e-02</leafValues></_>
        <_>
          <internalNodes>
            0 -1 18 -2.2039985284209251e-02</internalNodes>
          <leafValues>
            7.5532561540603638e-01 -6.9650903344154358e-02</leafValues></_>
        <_>
          <internalNodes>
            0 -1 70 -1.9912313669919968e-02</internalNodes>
          <leafValues>
            8.3619236946105957e-01 -5.6857455521821976e-02</leafValues></_>
        <_>
          <internalNodes>
            0 -1 115 -1.1943146586418152e-02</internalNodes>
          <leafValues>
            3.5109850764274597e-01 -1.2970621883869171e-01</leafValues></_>
        <_>
          <internalNodes>
            0 -1 566 -7.0900807622820139e-04</internalNodes>
          <leafValues>
            2.6981520652770996e-01 -1.4317721128463745e-01</leafValues></_>
        <_>
          <internalNodes>
            0 -1 188 1.3741709291934967e-02</internalNodes>
          <leafValues>
            -1.3146711885929108e-01 3.6940538883209229e-01</leafValues></_>
        <_>
          <internalNodes>
            0 -1 111 -3.8750115782022476e-03</internalNodes>
          <leafValues>
            -4.2898718267679214e-02 8.8241982460021973e-01</leafValues></_>
        <_>
          <internalNodes>
            0 -1 159 3.3941585570573807e-02</internalNodes>
          <leafValues>
            -9.7759850323200226e-02 3.3194574713706970e-01</leafValues></_>
        <_>
          <internalNodes>
            0 -1 576 1.0617651976644993e-02</internalNodes>
          <leafValues>
            -7.0609889924526215e-02 6.2034630775451660e-01</leafValues></_>
        <_>
          <internalNodes>
            0 -1 10 -3.3158105611801147e-01</internalNodes>
          <leafValues>
            6.0188442468643188e-01 -4.4261336326599121e-02</leafValues></_>
        <_>
          <internalNodes>
            0 -1 502 2.3888896685093641e-03</internalNodes>
          <leafValues>
            8.5553564131259918e-02 -4.8954868316650391e-01</leafValues></_>
        <_>
          <internalNodes>
            0 -1 456 -3.9552347734570503e-03</internalNodes>
          <leafValues>
            -9.2499548196792603e-01 4.4761463999748230e-02</leafValues></_>
        <_>
          <internalNodes>
            0 -1 238 6.3686473295092583e-03</internalNodes>
          <leafValues>
            -1.5203587710857391e-01 2.4751877784729004e-01</leafValues></_>
        <_>
          <internalNodes>
            0 -1 165 -1.6002275049686432e-02</internalNodes>
          <leafValues>
            1.9312924146652222e-01 -2.5989383459091187e-01</leafValues></_>
        <_>
          <internalNodes>
            0 -1 430 3.1759282574057579e-03</internalNodes>
          <leafValues>
            -1.0643634200096130e-01 3.1999263167381287e-01</leafValues></_>
        <_>
          <internalNodes>
            0 -1 156 -8.6666382849216461e-02</internalNodes>
          <leafValues>
            7.0313245058059692e-01 -5.7712659239768982e-02</leafValues></_>
        <_>
          <internalNodes>
            0 -1 582 -2.2963930387049913e-03</internalNodes>
          <leafValues>
            -3.6779843270778656e-02 9.6813279390335083e-01</leafValues></_>
        <_>
          <internalNodes>
            0 -1 76 -4.8203464597463608e-02</internalNodes>
          <leafValues>
            1.4250688254833221e-01 -3.3655762672424316e-01</leafValues></_>
        <_>
          <internalNodes>
            0 -1 464 4.2963270097970963e-03</internalNodes>
          <leafValues>
            5.4215017706155777e-02 -7.7201205492019653e-01</leafValues></_>
        <_>
          <internalNodes>
            0 -1 568 1.6248606145381927e-02</internalNodes>
          <leafValues>
            -5.7764913886785507e-02 7.6874881982803345e-01</leafValues></_>
        <_>
          <internalNodes>
            0 -1 408 -1.2727765715681016e-04</internalNodes>
          <leafValues>
            -2.9008466005325317e-01 1.3972052931785583e-01</leafValues></_>
        <_>
          <internalNodes>
            0 -1 557 -2.3067941889166832e-02</internalNodes>
          <leafValues>
            3.8088390231132507e-01 -1.1483835428953171e-01</leafValues></_>
        <_>
          <internalNodes>
            0 -1 506 -1.0755199939012527e-02</internalNodes>
          <leafValues>
            -3.7109425663948059e-01 1.0821933299303055e-01</leafValues></_>
        <_>
          <internalNodes>
            0 -1 618 2.2466459777206182e-03</internalNodes>
          <leafValues>
            6.9643072783946991e-02 -5.4770737886428833e-01</leafValues></_>
        <_>
          <internalNodes>
            0 -1 128 -1.1293034069240093e-02</internalNodes>
          <leafValues>
            2.1988497674465179e-01 -1.5794859826564789e-01</leafValues></_>
        <_>
          <internalNodes>
            0 -1 391 -4.7389598330482841e-04</internalNodes>
          <leafValues>
            1.9861504435539246e-01 -2.3571361601352692e-01</leafValues></_></weakClassifiers></_>
    <!-- stage 15 -->
    <_>
      <maxWeakCount>29</maxWeakCount>
      <stageThreshold>-8.2047492265701294e-01</stageThreshold>
      <weakClassifiers>
        <_>
          <internalNodes>
            0 -1 36 7.8226342797279358e-02</internalNodes>
          <leafValues>
            -1.3962264358997345e-01 4.9189189076423645e-01</leafValues></_>
        <_>
          <internalNodes>
            0 -1 27 -2.4483602494001389e-02</internalNodes>
          <leafValues>
            6.0869121551513672e-01 -8.3691962063312531e-02</leafValues></_>
        <_>
          <internalNodes>
            0 -1 38 -1.4981798827648163e-02</internalNodes>
          <leafValues>
            -8.0353635549545288e-01 6.4078338444232941e-02</leafValues></_>
        <_>
          <internalNodes>
            0 -1 410 -1.1674244888126850e-03</internalNodes>
          <leafValues>
            3.6914238333702087e-01 -1.2463181465864182e-01</leafValues></_>
        <_>
          <internalNodes>
            0 -1 559 -1.1344182491302490e-01</internalNodes>
          <leafValues>
            -5.7251125574111938e-01 5.3653649985790253e-02</leafValues></_>
        <_>
          <internalNodes>
            0 -1 587 -2.2470302879810333e-02</internalNodes>
          <leafValues>
            4.9092060327529907e-01 -8.5891008377075195e-02</leafValues></_>
        <_>
          <internalNodes>
            0 -1 186 -5.4463261039927602e-04</internalNodes>
          <leafValues>
            1.1218525469303131e-01 -6.8532717227935791e-01</leafValues></_>
        <_>
          <internalNodes>
            0 -1 2 5.9901997447013855e-03</internalNodes>
          <leafValues>
            4.4950935989618301e-02 -5.2169018983840942e-01</leafValues></_>
        <_>
          <internalNodes>
            0 -1 621 5.6053837761282921e-03</internalNodes>
          <leafValues>
            8.2079187035560608e-02 -5.1916670799255371e-01</leafValues></_>
        <_>
          <internalNodes>
            0 -1 14 4.7730961814522743e-03</internalNodes>
          <leafValues>
            -4.6780493110418320e-02 8.7679189443588257e-01</leafValues></_>
        <_>
          <internalNodes>
            0 -1 0 -2.0349966362118721e-03</internalNodes>
          <leafValues>
            -5.9062111377716064e-01 8.6773119866847992e-02</leafValues></_>
        <_>
          <internalNodes>
            0 -1 29 -4.6867801574990153e-04</internalNodes>
          <leafValues>
            3.2570216059684753e-01 -1.4167582988739014e-01</leafValues></_>
        <_>
          <internalNodes>
            0 -1 179 -3.5710080992430449e-03</internalNodes>
          <leafValues>
            6.6332477331161499e-01 -6.8108938634395599e-02</leafValues></_>
        <_>
          <internalNodes>
            0 -1 619 5.0383070483803749e-03</internalNodes>
          <leafValues>
            1.2909860908985138e-01 -3.7285599112510681e-01</leafValues></_>
        <_>
          <internalNodes>
            0 -1 21 -3.7396894767880440e-03</internalNodes>
          <leafValues>
            -1.2137402594089508e-01 3.5220775008201599e-01</leafValues></_>
        <_>
          <internalNodes>
            0 -1 55 4.2256782762706280e-05</internalNodes>
          <leafValues>
            1.9487491250038147e-01 -2.6499891281127930e-01</leafValues></_>
        <_>
          <internalNodes>
            0 -1 223 -5.4455009376397356e-05</internalNodes>
          <leafValues>
            -2.2293400764465332e-01 2.1178412437438965e-01</leafValues></_>
        <_>
          <internalNodes>
            0 -1 412 -6.9136475212872028e-04</internalNodes>
          <leafValues>
            4.5439247041940689e-02 -8.2400941848754883e-01</leafValues></_>
        <_>
          <internalNodes>
            0 -1 325 2.1293213590979576e-02</internalNodes>
          <leafValues>
            3.0882408842444420e-02 -8.7230652570724487e-01</leafValues></_>
        <_>
          <internalNodes>
            0 -1 572 -1.4132340438663960e-03</internalNodes>
          <leafValues>
            3.3671987056732178e-01 -1.1714591085910797e-01</leafValues></_>
        <_>
          <internalNodes>
            0 -1 75 1.0543139651417732e-03</internalNodes>
          <leafValues>
            6.9568470120429993e-02 -6.5232002735137939e-01</leafValues></_>
        <_>
          <internalNodes>
            0 -1 436 -1.6350946389138699e-03</internalNodes>
          <leafValues>
            5.3194081783294678e-01 -8.1172652542591095e-02</leafValues></_>
        <_>
          <internalNodes>
            0 -1 256 5.2652847953140736e-03</internalNodes>
          <leafValues>
            -1.5493886172771454e-01 2.6200628280639648e-01</leafValues></_>
        <_>
          <internalNodes>
            0 -1 586 2.9324769973754883e-02</internalNodes>
          <leafValues>
            -7.5840823352336884e-02 6.1033540964126587e-01</leafValues></_>
        <_>
          <internalNodes>
            0 -1 539 -1.4639845117926598e-02</internalNodes>
          <leafValues>
            2.9261341691017151e-01 -1.4504219591617584e-01</leafValues></_>
        <_>
          <internalNodes>
            0 -1 244 2.3075053095817566e-01</internalNodes>
          <leafValues>
            -5.4786123335361481e-02 8.0234426259994507e-01</leafValues></_>
        <_>
          <internalNodes>
            0 -1 82 1.9734939560294151e-03</internalNodes>
          <leafValues>
            -1.3408286869525909e-01 2.8486722707748413e-01</leafValues></_>
        <_>
          <internalNodes>
            0 -1 155 2.1631247363984585e-03</internalNodes>
          <leafValues>
            8.6882777512073517e-02 -4.9572792649269104e-01</leafValues></_>
        <_>
          <internalNodes>
            0 -1 272 -1.0834584827534854e-04</internalNodes>
          <leafValues>
            2.5885483622550964e-01 -1.5909264981746674e-01</leafValues></_></weakClassifiers></_>
    <!-- stage 16 -->
    <_>
      <maxWeakCount>28</maxWeakCount>
      <stageThreshold>-8.1202203035354614e-01</stageThreshold>
      <weakClassifiers>
        <_>
          <internalNodes>
            0 -1 296 1.8245198298245668e-03</internalNodes>
          <leafValues>
            6.7583046853542328e-02 -7.3831772804260254e-01</leafValues></_>
        <_>
          <internalNodes>
            0 -1 307 -1.8209686875343323e-01</internalNodes>
          <leafValues>
            7.8703266382217407e-01 -3.1292442232370377e-02</leafValues></_>
        <_>
          <internalNodes>
            0 -1 60 1.2889603385701776e-04</internalNodes>
          <leafValues>
            1.2753066420555115e-01 -3.0782184004783630e-01</leafValues></_>
        <_>
          <internalNodes>
            0 -1 173 -5.0787493819370866e-04</internalNodes>
          <leafValues>
            -4.0527263283729553e-01 1.4931464195251465e-01</leafValues></_>
        <_>
          <internalNodes>
            0 -1 361 -2.5005104020237923e-02</internalNodes>
          <leafValues>
            -9.2828519642353058e-02 4.4667065143585205e-01</leafValues></_>
        <_>
          <internalNodes>
            0 -1 484 3.2452099025249481e-02</internalNodes>
          <leafValues>
            -7.6810508966445923e-02 5.4205524921417236e-01</leafValues></_>
        <_>
          <internalNodes>
            0 -1 40 4.6699591912329197e-03</internalNodes>
          <leafValues>
            5.6816905736923218e-02 -7.2773295640945435e-01</leafValues></_>
        <_>
          <internalNodes>
            0 -1 86 -1.2970569729804993e-01</internalNodes>
          <leafValues>
            5.7358521223068237e-01 -9.1047883033752441e-02</leafValues></_>
        <_>
          <internalNodes>
            0 -1 19 1.0115562379360199e-01</internalNodes>
          <leafValues>
            -1.0503429174423218e-01 4.9050283432006836e-01</leafValues></_>
        <_>
          <internalNodes>
            0 -1 493 -6.2069721519947052e-02</internalNodes>
          <leafValues>
            8.5319197177886963e-01 -3.9056520909070969e-02</leafValues></_>
        <_>
          <internalNodes>
            0 -1 81 7.1961134672164917e-03</internalNodes>
          <leafValues>
            8.8700652122497559e-02 -5.0395756959915161e-01</leafValues></_>
        <_>
          <internalNodes>
            0 -1 352 4.0145101957023144e-04</internalNodes>
          <leafValues>
            1.7700029909610748e-01 -2.2911700606346130e-01</leafValues></_>
        <_>
          <internalNodes>
            0 -1 517 -4.4488464482128620e-04</internalNodes>
          <leafValues>
            -3.3903375267982483e-01 1.4533060789108276e-01</leafValues></_>
        <_>
          <internalNodes>
            0 -1 255 8.2860670983791351e-02</internalNodes>
          <leafValues>
            -5.7154502719640732e-02 8.2882797718048096e-01</leafValues></_>
        <_>
          <internalNodes>
            0 -1 169 5.0787866115570068e-02</internalNodes>
          <leafValues>
            -1.4113418757915497e-01 2.9196846485137939e-01</leafValues></_>
        <_>
          <internalNodes>
            0 -1 344 7.6062236912548542e-03</internalNodes>
          <leafValues>
            8.5947968065738678e-02 -5.5835133790969849e-01</leafValues></_>
        <_>
          <internalNodes>
            0 -1 611 -3.5030447179451585e-04</internalNodes>
          <leafValues>
            -3.3670216798782349e-01 1.1704786121845245e-01</leafValues></_>
        <_>
          <internalNodes>
            0 -1 546 -4.7797664999961853e-02</internalNodes>
          <leafValues>
            -5.9678941965103149e-01 7.2125710546970367e-02</leafValues></_>
        <_>
          <internalNodes>
            0 -1 139 3.1397235579788685e-04</internalNodes>
          <leafValues>
            1.2640731036663055e-01 -3.2017630338668823e-01</leafValues></_>
        <_>
          <internalNodes>
            0 -1 224 -2.7957406640052795e-01</internalNodes>
          <leafValues>
            -4.0455931425094604e-01 8.9735262095928192e-02</leafValues></_>
        <_>
          <internalNodes>
            0 -1 338 -7.0537641644477844e-02</internalNodes>
          <leafValues>
            5.5819824337959290e-02 -6.5273046493530273e-01</leafValues></_>
        <_>
          <internalNodes>
            0 -1 533 -4.6684080734848976e-03</internalNodes>
          <leafValues>
            -8.2834267616271973e-01 3.4241922199726105e-02</leafValues></_>
        <_>
          <internalNodes>
            0 -1 442 7.2849011048674583e-03</internalNodes>
          <leafValues>
            4.7960106283426285e-02 -6.3816922903060913e-01</leafValues></_>
        <_>
          <internalNodes>
            0 -1 450 -6.0090365877840668e-05</internalNodes>
          <leafValues>
            -2.3682002723217010e-01 1.6675701737403870e-01</leafValues></_>
        <_>
          <internalNodes>
            0 -1 341 -9.7400881350040436e-03</internalNodes>
          <leafValues>
            -9.6588242053985596e-01 3.4577820450067520e-02</leafValues></_>
        <_>
          <internalNodes>
            0 -1 492 -6.4080846495926380e-03</internalNodes>
          <leafValues>
            -6.5381872653961182e-01 5.6452803313732147e-02</leafValues></_>
        <_>
          <internalNodes>
            0 -1 333 -2.3796394816599786e-04</internalNodes>
          <leafValues>
            -2.6519387960433960e-01 1.6389094293117523e-01</leafValues></_>
        <_>
          <internalNodes>
            0 -1 427 1.3898811303079128e-03</internalNodes>
          <leafValues>
            -1.4875449240207672e-01 2.3815725743770599e-01</leafValues></_></weakClassifiers></_>
    <!-- stage 17 -->
    <_>
      <maxWeakCount>30</maxWeakCount>
      <stageThreshold>-8.4678602218627930e-01</stageThreshold>
      <weakClassifiers>
        <_>
          <internalNodes>
            0 -1 411 1.2924445327371359e-03</internalNodes>
          <leafValues>
            -8.8435374200344086e-02 5.9183675050735474e-01</leafValues></_>
        <_>
          <internalNodes>
            0 -1 454 -5.9715728275477886e-04</internalNodes>
          <leafValues>
            -1.0086547583341599e-01 7.0898699760437012e-01</leafValues></_>
        <_>
          <internalNodes>
            0 -1 553 2.3375637829303741e-04</internalNodes>
          <leafValues>
            1.8428154289722443e-01 -2.5390127301216125e-01</leafValues></_>
        <_>
          <internalNodes>
            0 -1 564 -5.4822759702801704e-03</internalNodes>
          <leafValues>
            6.0016106814146042e-02 -6.5667867660522461e-01</leafValues></_>
        <_>
          <internalNodes>
            0 -1 603 3.4435428678989410e-02</internalNodes>
          <leafValues>
            6.6342353820800781e-02 -7.2590130567550659e-01</leafValues></_>
        <_>
          <internalNodes>
            0 -1 534 1.8099924782291055e-03</internalNodes>
          <leafValues>
            -6.5987803041934967e-02 5.2776664495468140e-01</leafValues></_>
        <_>
          <internalNodes>
            0 -1 89 -3.0366070568561554e-03</internalNodes>
          <leafValues>
            7.7282220125198364e-01 -3.3402774482965469e-02</leafValues></_>
        <_>
          <internalNodes>
            0 -1 571 -1.9119465723633766e-03</internalNodes>
          <leafValues>
            6.3204270601272583e-01 -5.5879563093185425e-02</leafValues></_>
        <_>
          <internalNodes>
            0 -1 331 2.3007518029771745e-04</internalNodes>
          <leafValues>
            1.2153115868568420e-01 -3.8948971033096313e-01</leafValues></_>
        <_>
          <internalNodes>
            0 -1 131 2.7753361500799656e-03</internalNodes>
          <leafValues>
            -9.2621065676212311e-02 5.0703483819961548e-01</leafValues></_>
        <_>
          <internalNodes>
            0 -1 595 -2.9153078794479370e-03</internalNodes>
          <leafValues>
            -1.0770444571971893e-01 3.3526343107223511e-01</leafValues></_>
        <_>
          <internalNodes>
            0 -1 183 3.3827748149633408e-02</internalNodes>
          <leafValues>
            -1.0714609175920486e-01 3.8929215073585510e-01</leafValues></_>
        <_>
          <internalNodes>
            0 -1 376 1.7624584143050015e-04</internalNodes>
          <leafValues>
            1.7797614634037018e-01 -2.0734988152980804e-01</leafValues></_>
        <_>
          <internalNodes>
            0 -1 441 -1.1341741774231195e-03</internalNodes>
          <leafValues>
            5.4600238800048828e-01 -7.3348432779312134e-02</leafValues></_>
        <_>
          <internalNodes>
            0 -1 495 2.0854184404015541e-03</internalNodes>
          <leafValues>
            -6.2347941100597382e-02 5.2291899919509888e-01</leafValues></_>
        <_>
          <internalNodes>
            0 -1 100 -2.1043457090854645e-03</internalNodes>
          <leafValues>
            -3.7459093332290649e-01 1.1626140773296356e-01</leafValues></_>
        <_>
          <internalNodes>
            0 -1 574 4.4432673603296280e-03</internalNodes>
          <leafValues>
            -9.2935629189014435e-02 4.4283667206764221e-01</leafValues></_>
        <_>
          <internalNodes>
            0 -1 113 -1.8212113063782454e-03</internalNodes>
          <leafValues>
            3.8382253050804138e-01 -9.9391169846057892e-02</leafValues></_>
        <_>
          <internalNodes>
            0 -1 175 6.8059642217122018e-05</internalNodes>
          <leafValues>
            1.5142360329627991e-01 -2.8819456696510315e-01</leafValues></_>
        <_>
          <internalNodes>
            0 -1 84 2.2005359642207623e-03</internalNodes>
          <leafValues>
            -5.8933321386575699e-02 6.2736243009567261e-01</leafValues></_>
        <_>
          <internalNodes>
            0 -1 83 -3.4574256278574467e-04</internalNodes>
          <leafValues>
            -3.1543752551078796e-01 1.2368310242891312e-01</leafValues></_>
        <_>
          <internalNodes>
            0 -1 92 5.9191947802901268e-03</internalNodes>
          <leafValues>
            -1.2352629005908966e-01 3.3025658130645752e-01</leafValues></_>
        <_>
          <internalNodes>
            0 -1 514 -3.9740568026900291e-03</internalNodes>
          <leafValues>
            7.5318926572799683e-01 -4.7532919794321060e-02</leafValues></_>
        <_>
          <internalNodes>
            0 -1 468 4.9945218488574028e-03</internalNodes>
          <leafValues>
            -4.8487491905689240e-02 6.9561088085174561e-01</leafValues></_>
        <_>
          <internalNodes>
            0 -1 600 4.6095825382508337e-05</internalNodes>
          <leafValues>
            1.5975190699100494e-01 -2.4557171761989594e-01</leafValues></_>
        <_>
          <internalNodes>
            0 -1 73 -2.7910107746720314e-03</internalNodes>
          <leafValues>
            8.1409704685211182e-01 -6.3713937997817993e-02</leafValues></_>
        <_>
          <internalNodes>
            0 -1 525 1.5835503581911325e-03</internalNodes>
          <leafValues>
            -7.2651803493499756e-02 4.7341462969779968e-01</leafValues></_>
        <_>
          <internalNodes>
            0 -1 320 3.6494983360171318e-03</internalNodes>
          <leafValues>
            -3.8282204419374466e-02 8.8302975893020630e-01</leafValues></_>
        <_>
          <internalNodes>
            0 -1 407 8.0148279666900635e-03</internalNodes>
          <leafValues>
            7.5367800891399384e-02 -6.9743806123733521e-01</leafValues></_>
        <_>
          <internalNodes>
            0 -1 312 7.3878420516848564e-04</internalNodes>
          <leafValues>
            -1.2172226607799530e-01 4.2315250635147095e-01</leafValues></_></weakClassifiers></_>
    <!-- stage 18 -->
    <_>
      <maxWeakCount>38</maxWeakCount>
      <stageThreshold>-8.6031609773635864e-01</stageThreshold>
      <weakClassifiers>
        <_>
          <internalNodes>
            0 -1 404 -4.9472652608528733e-04</internalNodes>
          <leafValues>
            -2.9729729890823364e-01 1.2210200726985931e-01</leafValues></_>
        <_>
          <internalNodes>
            0 -1 127 -4.1772630065679550e-03</internalNodes>
          <leafValues>
            3.9069196581840515e-01 -1.1054411530494690e-01</leafValues></_>
        <_>
          <internalNodes>
            0 -1 469 -1.1069586873054504e-01</internalNodes>
          <leafValues>
            -5.9412246942520142e-01 6.2897771596908569e-02</leafValues></_>
        <_>
          <internalNodes>
            0 -1 280 -2.4521982669830322e-01</internalNodes>
          <leafValues>
            -5.3257608413696289e-01 8.7789103388786316e-02</leafValues></_>
        <_>
          <internalNodes>
            0 -1 478 -1.7470484599471092e-02</internalNodes>
          <leafValues>
            -8.3952307701110840e-02 6.0950601100921631e-01</leafValues></_>
        <_>
          <internalNodes>
            0 -1 437 2.4571830872446299e-03</internalNodes>
          <leafValues>
            -1.6253784298896790e-01 2.5410971045494080e-01</leafValues></_>
        <_>
          <internalNodes>
            0 -1 148 3.0233755707740784e-02</internalNodes>
          <leafValues>
            -3.1546093523502350e-02 6.5403437614440918e-01</leafValues></_>
        <_>
          <internalNodes>
            0 -1 61 3.3236145100090653e-05</internalNodes>
          <leafValues>
            1.3603605329990387e-01 -2.6784241199493408e-01</leafValues></_>
        <_>
          <internalNodes>
            0 -1 190 4.2746637016534805e-02</internalNodes>
          <leafValues>
            -3.2898534089326859e-02 9.1594082117080688e-01</leafValues></_>
        <_>
          <internalNodes>
            0 -1 6 -1.2778254225850105e-02</internalNodes>
          <leafValues>
            -5.1821225881576538e-01 6.2987960875034332e-02</leafValues></_>
        <_>
          <internalNodes>
            0 -1 511 3.6685878876596689e-04</internalNodes>
          <leafValues>
            1.3740698993206024e-01 -2.5745227932929993e-01</leafValues></_>
        <_>
          <internalNodes>
            0 -1 345 5.6477934122085571e-03</internalNodes>
          <leafValues>
            -9.7690649330615997e-02 4.2704024910926819e-01</leafValues></_>
        <_>
          <internalNodes>
            0 -1 286 1.5191647689789534e-03</internalNodes>
          <leafValues>
            -8.6395688354969025e-02 3.8426375389099121e-01</leafValues></_>
        <_>
          <internalNodes>
            0 -1 565 -2.8958909213542938e-02</internalNodes>
          <leafValues>
            6.2633180618286133e-01 -4.9384362995624542e-02</leafValues></_>
        <_>
          <internalNodes>
            0 -1 351 -6.4414474763907492e-05</internalNodes>
          <leafValues>
            -2.3277823626995087e-01 1.4274245500564575e-01</leafValues></_>
        <_>
          <internalNodes>
            0 -1 612 -6.8229768658056855e-05</internalNodes>
          <leafValues>
            -2.4216902256011963e-01 1.2802569568157196e-01</leafValues></_>
        <_>
          <internalNodes>
            0 -1 178 1.6084169037640095e-03</internalNodes>
          <leafValues>
            -8.4771171212196350e-02 4.1418328881263733e-01</leafValues></_>
        <_>
          <internalNodes>
            0 -1 295 3.7938281893730164e-03</internalNodes>
          <leafValues>
            -1.3752113282680511e-01 2.3501636087894440e-01</leafValues></_>
        <_>
          <internalNodes>
            0 -1 473 -2.1031703799962997e-02</internalNodes>
          <leafValues>
            5.5369311571121216e-01 -7.5766570866107941e-02</leafValues></_>
        <_>
          <internalNodes>
            0 -1 452 -1.2431376671884209e-04</internalNodes>
          <leafValues>
            -3.1737273931503296e-01 1.0937249660491943e-01</leafValues></_>
        <_>
          <internalNodes>
            0 -1 299 -1.3565492630004883e-01</internalNodes>
          <leafValues>
            -7.5366580486297607e-01 4.2467705905437469e-02</leafValues></_>
        <_>
          <internalNodes>
            0 -1 266 1.7093559727072716e-03</internalNodes>
          <leafValues>
            1.4057950675487518e-01 -2.6378792524337769e-01</leafValues></_>
        <_>
          <internalNodes>
            0 -1 23 7.1564549580216408e-03</internalNodes>
          <leafValues>
            -4.0485605597496033e-02 6.1833548545837402e-01</leafValues></_>
        <_>
          <internalNodes>
            0 -1 435 1.9906512461602688e-03</internalNodes>
          <leafValues>
            -7.2984181344509125e-02 4.6059435606002808e-01</leafValues></_>
        <_>
          <internalNodes>
            0 -1 498 -1.0952693992294371e-04</internalNodes>
          <leafValues>
            -2.9645904898643494e-01 1.0569623112678528e-01</leafValues></_>
        <_>
          <internalNodes>
            0 -1 508 -1.7941573169082403e-03</internalNodes>
          <leafValues>
            4.6195045113563538e-01 -7.6430961489677429e-02</leafValues></_>
        <_>
          <internalNodes>
            0 -1 269 -3.2676118426024914e-03</internalNodes>
          <leafValues>
            -2.8713831305503845e-01 1.1773744225502014e-01</leafValues></_>
        <_>
          <internalNodes>
            0 -1 50 -6.9931909441947937e-02</internalNodes>
          <leafValues>
            -1.1322108656167984e-01 3.1237140297889709e-01</leafValues></_>
        <_>
          <internalNodes>
            0 -1 364 6.0436414787545800e-04</internalNodes>
          <leafValues>
            -1.5731056034564972e-01 2.7682051062583923e-01</leafValues></_>
        <_>
          <internalNodes>
            0 -1 177 -6.2037706375122070e-03</internalNodes>
          <leafValues>
            5.6623667478561401e-01 -7.6375827193260193e-02</leafValues></_>
        <_>
          <internalNodes>
            0 -1 35 -1.2027628719806671e-02</internalNodes>
          <leafValues>
            4.3810182809829712e-01 -7.8101448714733124e-02</leafValues></_>
        <_>
          <internalNodes>
            0 -1 308 -8.0602411180734634e-03</internalNodes>
          <leafValues>
            8.7712235748767853e-02 -4.2161959409713745e-01</leafValues></_>
        <_>
          <internalNodes>
            0 -1 112 -4.9266368150711060e-03</internalNodes>
          <leafValues>
            2.2902123630046844e-01 -1.5925855934619904e-01</leafValues></_>
        <_>
          <internalNodes>
            0 -1 602 -1.9093644805252552e-03</internalNodes>
          <leafValues>
            3.8798531889915466e-01 -8.5914924740791321e-02</leafValues></_>
        <_>
          <internalNodes>
            0 -1 601 2.9322502668946981e-03</internalNodes>
          <leafValues>
            -1.1623310297727585e-01 3.6263680458068848e-01</leafValues></_>
        <_>
          <internalNodes>
            0 -1 103 1.5307420108001679e-04</internalNodes>
          <leafValues>
            1.2487642467021942e-01 -2.8785136342048645e-01</leafValues></_>
        <_>
          <internalNodes>
            0 -1 494 1.5600019833073020e-04</internalNodes>
          <leafValues>
            1.5317448973655701e-01 -2.5005456805229187e-01</leafValues></_>
        <_>
          <internalNodes>
            0 -1 392 6.0167984338477254e-04</internalNodes>
          <leafValues>
            -1.3789266347885132e-01 2.7206680178642273e-01</leafValues></_></weakClassifiers></_>
    <!-- stage 19 -->
    <_>
      <maxWeakCount>40</maxWeakCount>
      <stageThreshold>-8.0012720823287964e-01</stageThreshold>
      <weakClassifiers>
        <_>
          <internalNodes>
            0 -1 239 -2.9059582948684692e-01</internalNodes>
          <leafValues>
            7.3913043737411499e-01 -7.7936336398124695e-02</leafValues></_>
        <_>
          <internalNodes>
            0 -1 343 3.2173108309507370e-02</internalNodes>
          <leafValues>
            -1.1165619641542435e-01 4.8806032538414001e-01</leafValues></_>
        <_>
          <internalNodes>
            0 -1 176 -1.1261516809463501e-01</internalNodes>
          <leafValues>
            -6.3681817054748535e-01 6.2391817569732666e-02</leafValues></_>
        <_>
          <internalNodes>
            0 -1 222 -8.0768838524818420e-02</internalNodes>
          <leafValues>
            9.3816512823104858e-01 -6.2303207814693451e-03</leafValues></_>
        <_>
          <internalNodes>
            0 -1 221 -7.7164694666862488e-02</internalNodes>
          <leafValues>
            -7.2038733959197998e-01 9.9679073318839073e-03</leafValues></_>
        <_>
          <internalNodes>
            0 -1 212 -1.8301624804735184e-03</internalNodes>
          <leafValues>
            2.9436257481575012e-01 -1.2227657437324524e-01</leafValues></_>
        <_>
          <internalNodes>
            0 -1 154 -1.1141680926084518e-01</internalNodes>
          <leafValues>
            -5.8038151264190674e-01 5.6686040014028549e-02</leafValues></_>
        <_>
          <internalNodes>
            0 -1 597 -3.7523610517382622e-03</internalNodes>
          <leafValues>
            1.0036384314298630e-01 -5.9034961462020874e-01</leafValues></_>
        <_>
          <internalNodes>
            0 -1 250 2.7476819232106209e-03</internalNodes>
          <leafValues>
            -1.7409263551235199e-01 2.1328634023666382e-01</leafValues></_>
        <_>
          <internalNodes>
            0 -1 259 -3.3655550796538591e-03</internalNodes>
          <leafValues>
            1.5350677073001862e-01 -2.6661932468414307e-01</leafValues></_>
        <_>
          <internalNodes>
            0 -1 96 -1.0427972674369812e-01</internalNodes>
          <leafValues>
            -1.0930521041154861e-01 4.5452839136123657e-01</leafValues></_>
        <_>
          <internalNodes>
            0 -1 472 3.6781162023544312e-02</internalNodes>
          <leafValues>
            -1.9212553277611732e-02 7.0340895652770996e-01</leafValues></_>
        <_>
          <internalNodes>
            0 -1 438 2.3210646584630013e-02</internalNodes>
          <leafValues>
            -1.0018621385097504e-01 3.4525561332702637e-01</leafValues></_>
        <_>
          <internalNodes>
            0 -1 262 8.7198056280612946e-03</internalNodes>
          <leafValues>
            6.1163511127233505e-02 -5.2567964792251587e-01</leafValues></_>
        <_>
          <internalNodes>
            0 -1 440 -1.0085647925734520e-02</internalNodes>
          <leafValues>
            6.9337087869644165e-01 -4.3285701423883438e-02</leafValues></_>
        <_>
          <internalNodes>
            0 -1 324 2.6357150636613369e-03</internalNodes>
          <leafValues>
            -5.2457187324762344e-02 5.7605892419815063e-01</leafValues></_>
        <_>
          <internalNodes>
            0 -1 413 -1.3392057269811630e-02</internalNodes>
          <leafValues>
            -9.3105262517929077e-01 3.3062152564525604e-02</leafValues></_>
        <_>
          <internalNodes>
            0 -1 292 2.5197176262736320e-02</internalNodes>
          <leafValues>
            -1.3201506435871124e-01 2.4329340457916260e-01</leafValues></_>
        <_>
          <internalNodes>
            0 -1 276 -2.1111329551786184e-03</internalNodes>
          <leafValues>
            2.0840054750442505e-01 -1.9175006449222565e-01</leafValues></_>
        <_>
          <internalNodes>
            0 -1 0 1.6771066002547741e-03</internalNodes>
          <leafValues>
            8.4945693612098694e-02 -4.0637066960334778e-01</leafValues></_>
        <_>
          <internalNodes>
            0 -1 153 -4.1626358870416880e-04</internalNodes>
          <leafValues>
            2.4410605430603027e-01 -1.5027850866317749e-01</leafValues></_>
        <_>
          <internalNodes>
            0 -1 526 -2.6643781457096338e-03</internalNodes>
          <leafValues>
            4.1225695610046387e-01 -8.8914789259433746e-02</leafValues></_>
        <_>
          <internalNodes>
            0 -1 356 1.7968226224184036e-02</internalNodes>
          <leafValues>
            1.0536117851734161e-01 -3.2324033975601196e-01</leafValues></_>
        <_>
          <internalNodes>
            0 -1 146 -1.9685257226228714e-02</internalNodes>
          <leafValues>
            4.7358449548482895e-02 -6.6956967115402222e-01</leafValues></_>
        <_>
          <internalNodes>
            0 -1 333 1.1925907892873511e-04</internalNodes>
          <leafValues>
            1.4310000836849213e-01 -2.4017053842544556e-01</leafValues></_>
        <_>
          <internalNodes>
            0 -1 126 8.4674190729856491e-03</internalNodes>
          <leafValues>
            -3.9327859878540039e-02 9.1289132833480835e-01</leafValues></_>
        <_>
          <internalNodes>
            0 -1 258 -2.5650672614574432e-02</internalNodes>
          <leafValues>
            -7.1125306189060211e-02 4.2156141996383667e-01</leafValues></_>
        <_>
          <internalNodes>
            0 -1 208 -5.9772398322820663e-02</internalNodes>
          <leafValues>
            5.0430137664079666e-02 -6.3323897123336792e-01</leafValues></_>
        <_>
          <internalNodes>
            0 -1 2 -7.9438854008913040e-03</internalNodes>
          <leafValues>
            -6.1697876453399658e-01 5.9120681136846542e-02</leafValues></_>
        <_>
          <internalNodes>
            0 -1 22 -7.6286275871098042e-03</internalNodes>
          <leafValues>
            8.1471008062362671e-01 -4.6661615371704102e-02</leafValues></_>
        <_>
          <internalNodes>
            0 -1 158 -7.4616223573684692e-02</internalNodes>
          <leafValues>
            5.1566219329833984e-01 -5.3947035223245621e-02</leafValues></_>
        <_>
          <internalNodes>
            0 -1 37 -4.2566657066345215e-03</internalNodes>
          <leafValues>
            -4.7910821437835693e-01 8.1125684082508087e-02</leafValues></_>
        <_>
          <internalNodes>
            0 -1 536 1.0137450881302357e-02</internalNodes>
          <leafValues>
            -4.1416700929403305e-02 8.2862001657485962e-01</leafValues></_>
        <_>
          <internalNodes>
            0 -1 550 2.3949015885591507e-02</internalNodes>
          <leafValues>
            -4.8020154237747192e-02 6.2432670593261719e-01</leafValues></_>
        <_>
          <internalNodes>
            0 -1 185 -1.7206050455570221e-02</internalNodes>
          <leafValues>
            4.2021745443344116e-01 -8.0292955040931702e-02</leafValues></_>
        <_>
          <internalNodes>
            0 -1 8 -3.0612045899033546e-02</internalNodes>
          <leafValues>
            2.7199929952621460e-01 -1.1914563179016113e-01</leafValues></_>
        <_>
          <internalNodes>
            0 -1 358 4.9690017476677895e-04</internalNodes>
          <leafValues>
            -2.0360556244850159e-01 1.6828848421573639e-01</leafValues></_>
        <_>
          <internalNodes>
            0 -1 226 9.5837574917823076e-05</internalNodes>
          <leafValues>
            1.7314320802688599e-01 -1.8071323633193970e-01</leafValues></_>
        <_>
          <internalNodes>
            0 -1 143 -4.0901876986026764e-02</internalNodes>
          <leafValues>
            -9.0290749073028564e-01 3.9966043084859848e-02</leafValues></_>
        <_>
          <internalNodes>
            0 -1 230 2.4015578674152493e-05</internalNodes>
          <leafValues>
            -1.7949755489826202e-01 1.8361862003803253e-01</leafValues></_></weakClassifiers></_>
    <!-- stage 20 -->
    <_>
      <maxWeakCount>47</maxWeakCount>
      <stageThreshold>-7.6833373308181763e-01</stageThreshold>
      <weakClassifiers>
        <_>
          <internalNodes>
            0 -1 43 -2.9481929540634155e-01</internalNodes>
          <leafValues>
            -1.1868686974048615e-01 3.9361703395843506e-01</leafValues></_>
        <_>
          <internalNodes>
            0 -1 20 -1.0539852082729340e-03</internalNodes>
          <leafValues>
            6.1196148395538330e-01 -6.6573731601238251e-02</leafValues></_>
        <_>
          <internalNodes>
            0 -1 20 -9.3641888815909624e-04</internalNodes>
          <leafValues>
            -1. 4.7654709778726101e-03</leafValues></_>
        <_>
          <internalNodes>
            0 -1 20 -8.5102242883294821e-04</internalNodes>
          <leafValues>
            9.8357421159744263e-01 -4.2254552245140076e-03</leafValues></_>
        <_>
          <internalNodes>
            0 -1 20 -8.1052206223830581e-04</internalNodes>
          <leafValues>
            -1. 5.5728433653712273e-03</leafValues></_>
        <_>
          <internalNodes>
            0 -1 20 -8.0226530553773046e-04</internalNodes>
          <leafValues>
            9.8425221443176270e-01 -1.4164197491481900e-03</leafValues></_>
        <_>
          <internalNodes>
            0 -1 20 -7.5344915967434645e-04</internalNodes>
          <leafValues>
            -9.2414873838424683e-01 4.3629654683172703e-03</leafValues></_>
        <_>
          <internalNodes>
            0 -1 20 -7.4290926568210125e-04</internalNodes>
          <leafValues>
            9.8311674594879150e-01 -1.4269568491727114e-03</leafValues></_>
        <_>
          <internalNodes>
            0 -1 20 -7.3790369788184762e-04</internalNodes>
          <leafValues>
            -9.5779198408126831e-01 1.0027402313426137e-03</leafValues></_>
        <_>
          <internalNodes>
            0 -1 20 -7.2604417800903320e-04</internalNodes>
          <leafValues>
            9.8252213001251221e-01 -2.2904051002115011e-03</leafValues></_>
        <_>
          <internalNodes>
            0 -1 20 -7.1077147731557488e-04</internalNodes>
          <leafValues>
            -9.6039229631423950e-01 1.0047522373497486e-03</leafValues></_>
        <_>
          <internalNodes>
            0 -1 20 -6.7950261291116476e-04</internalNodes>
          <leafValues>
            9.8199075460433960e-01 -2.8794368263334036e-03</leafValues></_>
        <_>
          <internalNodes>
            0 -1 20 -5.5437471019104123e-04</internalNodes>
          <leafValues>
            -9.0957677364349365e-01 6.8204570561647415e-03</leafValues></_>
        <_>
          <internalNodes>
