<?xml version="1.0"?>
<opencv_storage>
<stage15>
  <maxWeakCount>29</maxWeakCount>
  <stageThreshold>-8.2047492265701294e-01</stageThreshold>
  <weakClassifiers>
    <_>
      <internalNodes>
        0 -1 4462 7.8226342797279358e-02</internalNodes>
      <leafValues>
        -1.3962264358997345e-01 4.9189189076423645e-01</leafValues></_>
    <_>
      <internalNodes>
        0 -1 2268 -2.4483602494001389e-02</internalNodes>
      <leafValues>
        6.0869121551513672e-01 -8.3691962063312531e-02</leafValues></_>
    <_>
      <internalNodes>
        0 -1 5057 -1.4981798827648163e-02</internalNodes>
      <leafValues>
        -8.0353635549545288e-01 6.4078338444232941e-02</leafValues></_>
    <_>
      <internalNodes>
        0 -1 117870 -1.1674244888126850e-03</internalNodes>
      <leafValues>
        3.6914238333702087e-01 -1.2463181465864182e-01</leafValues></_>
    <_>
      <internalNodes>
        0 -1 153050 -1.1344182491302490e-01</internalNodes>
      <leafValues>
        -5.7251125574111938e-01 5.3653649985790253e-02</leafValues></_>
    <_>
      <internalNodes>
        0 -1 158059 -2.2470302879810333e-02</internalNodes>
      <leafValues>
        4.9092060327529907e-01 -8.5891008377075195e-02</leafValues></_>
    <_>
      <internalNodes>
        0 -1 49142 -5.4463261039927602e-04</internalNodes>
      <leafValues>
        1.1218525469303131e-01 -6.8532717227935791e-01</leafValues></_>
    <_>
      <internalNodes>
        0 -1 16 5.9901997447013855e-03</internalNodes>
      <leafValues>
        4.4950935989618301e-02 -5.2169018983840942e-01</leafValues></_>
    <_>
      <internalNodes>
        0 -1 162303 5.6053837761282921e-03</internalNodes>
      <leafValues>
        8.2079187035560608e-02 -5.1916670799255371e-01</leafValues></_>
    <_>
      <internalNodes>
        0 -1 1114 4.7730961814522743e-03</internalNodes>
      <leafValues>
        -4.6780493110418320e-02 8.7679189443588257e-01</leafValues></_>
    <_>
      <internalNodes>
        0 -1 6 -2.0349966362118721e-03</internalNodes>
      <leafValues>
        -5.9062111377716064e-01 8.6773119866847992e-02</leafValues></_>
    <_>
      <internalNodes>
        0 -1 2494 -4.6867801574990153e-04</internalNodes>
      <leafValues>
        3.2570216059684753e-01 -1.4167582988739014e-01</leafValues></_>
    <_>
      <internalNodes>
        0 -1 48189 -3.5710080992430449e-03</internalNodes>
      <leafValues>
        6.6332477331161499e-01 -6.8108938634395599e-02</leafValues></_>
    <_>
      <internalNodes>
        0 -1 162166 5.0383070483803749e-03</internalNodes>
      <leafValues>
        1.2909860908985138e-01 -3.7285599112510681e-01</leafValues></_>
    <_>
      <internalNodes>
        0 -1 2131 -3.7396894767880440e-03</internalNodes>
      <leafValues>
        -1.2137402594089508e-01 3.5220775008201599e-01</leafValues></_>
    <_>
      <internalNodes>
        0 -1 8865 4.2256782762706280e-05</internalNodes>
      <leafValues>
        1.9487491250038147e-01 -2.6499891281127930e-01</leafValues></_>
    <_>
      <internalNodes>
        0 -1 59269 -5.4455009376397356e-05</internalNodes>
      <leafValues>
        -2.2293400764465332e-01 2.1178412437438965e-01</leafValues></_>
    <_>
      <internalNodes>
        0 -1 119300 -6.9136475212872028e-04</internalNodes>
      <leafValues>
        4.5439247041940689e-02 -8.2400941848754883e-01</leafValues></_>
    <_>
      <internalNodes>
        0 -1 89494 2.1293213590979576e-02</internalNodes>
      <leafValues>
        3.0882408842444420e-02 -8.7230652570724487e-01</leafValues></_>
    <_>
      <internalNodes>
        0 -1 155573 -1.4132340438663960e-03</internalNodes>
      <leafValues>
        3.3671987056732178e-01 -1.1714591085910797e-01</leafValues></_>
    <_>
      <internalNodes>
        0 -1 13001 1.0543139651417732e-03</internalNodes>
      <leafValues>
        6.9568470120429993e-02 -6.5232002735137939e-01</leafValues></_>
    <_>
      <internalNodes>
        0 -1 125049 -1.6350946389138699e-03</internalNodes>
      <leafValues>
        5.3194081783294678e-01 -8.1172652542591095e-02</leafValues></_>
    <_>
      <internalNodes>
        0 -1 67479 5.2652847953140736e-03</internalNodes>
      <leafValues>
        -1.5493886172771454e-01 2.6200628280639648e-01</leafValues></_>
    <_>
      <internalNodes>
        0 -1 157900 2.9324769973754883e-02</internalNodes>
      <leafValues>
        -7.5840823352336884e-02 6.1033540964126587e-01</leafValues></_>
    <_>
      <internalNodes>
        0 -1 149063 -1.4639845117926598e-02</internalNodes>
      <leafValues>
        2.9261341691017151e-01 -1.4504219591617584e-01</leafValues></_>
    <_>
      <internalNodes>
        0 -1 64667 2.3075053095817566e-01</internalNodes>
      <leafValues>
        -5.4786123335361481e-02 8.0234426259994507e-01</leafValues></_>
    <_>
      <internalNodes>
        0 -1 13443 1.9734939560294151e-03</internalNodes>
      <leafValues>
        -1.3408286869525909e-01 2.8486722707748413e-01</leafValues></_>
    <_>
      <internalNodes>
        0 -1 38144 2.1631247363984585e-03</internalNodes>
      <leafValues>
        8.6882777512073517e-02 -4.9572792649269104e-01</leafValues></_>
    <_>
      <internalNodes>
        0 -1 73776 -1.0834584827534854e-04</internalNodes>
      <leafValues>
        2.5885483622550964e-01 -1.5909264981746674e-01</leafValues></_></weakClassifiers></stage15>
</opencv_storage>
