<?xml version="1.0"?>
<opencv_storage>
<stage11>
  <maxWeakCount>30</maxWeakCount>
  <stageThreshold>-9.0881085395812988e-01</stageThreshold>
  <weakClassifiers>
    <_>
      <internalNodes>
        0 -1 8525 -2.8772234916687012e-01</internalNodes>
      <leafValues>
        -1.3116726279258728e-01 5.9731543064117432e-01</leafValues></_>
    <_>
      <internalNodes>
        0 -1 84978 -1.1033220589160919e-01</internalNodes>
      <leafValues>
        7.0061278343200684e-01 -7.5801104307174683e-02</leafValues></_>
    <_>
      <internalNodes>
        0 -1 135777 7.3331266641616821e-02</internalNodes>
      <leafValues>
        -1.8878403306007385e-01 3.7003627419471741e-01</leafValues></_>
    <_>
      <internalNodes>
        0 -1 162306 1.0134066687896848e-03</internalNodes>
      <leafValues>
        1.4901766180992126e-01 -4.3567088246345520e-01</leafValues></_>
    <_>
      <internalNodes>
        0 -1 89769 5.1921920385211706e-04</internalNodes>
      <leafValues>
        1.1162974685430527e-01 -4.1079831123352051e-01</leafValues></_>
    <_>
      <internalNodes>
        0 -1 1086 3.2976597547531128e-02</internalNodes>
      <leafValues>
        -8.7803654372692108e-02 4.9768513441085815e-01</leafValues></_>
    <_>
      <internalNodes>
        0 -1 5211 4.9595504999160767e-02</internalNodes>
      <leafValues>
        -1.0335700213909149e-01 4.8477625846862793e-01</leafValues></_>
    <_>
      <internalNodes>
        0 -1 106046 1.7061490565538406e-02</internalNodes>
      <leafValues>
        -1.5688396990299225e-01 2.9595434665679932e-01</leafValues></_>
    <_>
      <internalNodes>
        0 -1 149048 -3.3984955400228500e-02</internalNodes>
      <leafValues>
        3.3314236998558044e-01 -1.1269456148147583e-01</leafValues></_>
    <_>
      <internalNodes>
        0 -1 40295 1.7459993064403534e-01</internalNodes>
      <leafValues>
        -1.1198688298463821e-01 4.5273610949516296e-01</leafValues></_>
    <_>
      <internalNodes>
        0 -1 80765 -2.2761206491850317e-04</internalNodes>
      <leafValues>
        -2.9583343863487244e-01 1.7094689607620239e-01</leafValues></_>
    <_>
      <internalNodes>
        0 -1 2174 6.1310185119509697e-03</internalNodes>
      <leafValues>
        -1.1202874034643173e-01 5.1345938444137573e-01</leafValues></_>
    <_>
      <internalNodes>
        0 -1 12529 5.0924241077154875e-04</internalNodes>
      <leafValues>
        1.2177044153213501e-01 -5.1548957824707031e-01</leafValues></_>
    <_>
      <internalNodes>
        0 -1 123850 -9.5633591990917921e-04</internalNodes>
      <leafValues>
        2.5864046812057495e-01 -1.9161117076873779e-01</leafValues></_>
    <_>
      <internalNodes>
        0 -1 162081 2.6883650571107864e-03</internalNodes>
      <leafValues>
        -5.1329325884580612e-02 6.1416822671890259e-01</leafValues></_>
    <_>
      <internalNodes>
        0 -1 133719 -1.7114228103309870e-04</internalNodes>
      <leafValues>
        -3.8406634330749512e-01 1.1438453942537308e-01</leafValues></_>
    <_>
      <internalNodes>
        0 -1 155867 -4.5668836683034897e-03</internalNodes>
      <leafValues>
        3.9888972043991089e-01 -1.0576517134904861e-01</leafValues></_>
    <_>
      <internalNodes>
        0 -1 106880 3.1094276346266270e-03</internalNodes>
      <leafValues>
        6.7815691232681274e-02 -6.9284850358963013e-01</leafValues></_>
    <_>
      <internalNodes>
        0 -1 3300 1.6989024356007576e-02</internalNodes>
      <leafValues>
        -1.2969939410686493e-01 3.7981992959976196e-01</leafValues></_>
    <_>
      <internalNodes>
        0 -1 126911 -9.2049464583396912e-03</internalNodes>
      <leafValues>
        5.1168066263198853e-01 -7.2298176586627960e-02</leafValues></_>
    <_>
      <internalNodes>
        0 -1 132773 2.2714780643582344e-03</internalNodes>
      <leafValues>
        -1.2292888015508652e-01 3.8490366935729980e-01</leafValues></_>
    <_>
      <internalNodes>
        0 -1 9689 -4.6608429402112961e-03</internalNodes>
      <leafValues>
        -5.5633485317230225e-01 8.2115314900875092e-02</leafValues></_>
    <_>
      <internalNodes>
        0 -1 8855 1.6911193961277604e-04</internalNodes>
      <leafValues>
        1.3441836833953857e-01 -3.2037079334259033e-01</leafValues></_>
    <_>
      <internalNodes>
        0 -1 162335 3.1494212453253567e-04</internalNodes>
      <leafValues>
        1.1025918275117874e-01 -3.7504357099533081e-01</leafValues></_>
    <_>
      <internalNodes>
        0 -1 132335 1.4479786157608032e-02</internalNodes>
      <leafValues>
        -6.3853241503238678e-02 6.5132862329483032e-01</leafValues></_>
    <_>
      <internalNodes>
        0 -1 146303 -1.6696624457836151e-02</internalNodes>
      <leafValues>
        2.9495763778686523e-01 -1.3582780957221985e-01</leafValues></_>
    <_>
      <internalNodes>
        0 -1 113872 2.4689540732651949e-03</internalNodes>
      <leafValues>
        -1.7372593283653259e-01 2.8282672166824341e-01</leafValues></_>
    <_>
      <internalNodes>
        0 -1 151511 -4.7917274059727788e-04</internalNodes>
      <leafValues>
        -2.9860115051269531e-01 1.4116923511028290e-01</leafValues></_>
    <_>
      <internalNodes>
        0 -1 61784 2.0825979113578796e-01</internalNodes>
      <leafValues>
        6.6714718937873840e-02 -6.6134828329086304e-01</leafValues></_>
    <_>
      <internalNodes>
        0 -1 94712 -2.2041250485926867e-04</internalNodes>
      <leafValues>
        -3.2985576987266541e-01 1.1773639917373657e-01</leafValues></_></weakClassifiers></stage11>
</opencv_storage>
